svm_type c_svc
kernel_type rbf
gamma 0.03125
nr_class 2
total_sv 739
rho 3.2825
label 1 -1
nr_sv 401 338
SV
5.54336941681745 1:-0.984294 2:-0.929299 3:-0.971467 4:-0.0373827 5:-0.250632 6:-0.940853 7:-0.155863 8:-0.938846 9:-0.99979 10:0.211073 11:-0.0779194 12:-0.999909 13:0.058773 14:-0.999895 15:-0.999971 16:0.173547 17:-0.99999 18:-0.999992 19:0.403474 20:-0.999995 21:-0.999961 22:0.18712 23:-0.999989 24:-0.88 25:-1 26:-1 27:-0.320002 28:-1 29:-1 30:-1 31:-1 32:-1 33:-1 34:-1 35:-1 36:-1 37:-1 38:-0.6 39:-1 40:-1 41:-0.607051 42:-1 43:-1 44:-0.280001 45:-1 46:-1 47:-1 48:-1 49:-1 50:-1 51:-1 52:-0.653333 53:-1 54:-1 55:-0.755 56:-1 57:-1 58:-0.84 59:-1 60:-1 61:-1 62:-0.438261 63:-1 64:-1 65:-0.88 66:-0.68 67:-1 68:-1 69:-0.68 70:-1 71:-1 72:-0.520001 73:-1 74:-1 75:-1 76:-0.6 77:-1 78:-1 79:-0.6 80:-0.76 81:-1 82:-1 83:-0.7819 84:-1 85:-1 86:-0.540689 87:-1 88:-1 89:-1 90:-0.0999977 91:-1 92:-1 93:-1 94:-0.76 95:-1 96:-1 97:-0.444707 98:-1 99:-1 100:-0.373335 101:-1 102:-1 103:-1 104:-0.73 105:-1 106:-1 107:-1 108:-1 109:-1 110:-1 111:-0.76 112:-1 113:-1 114:-0.76 115:-1 116:-1 117:-1 118:-0.8 119:-1 120:-1 121:-1 122:-0.84 123:-1 124:-0.104 125:-1 126:-0.44 127:-1 128:-0.61 129:-1 130:-0.94 131:-0.279999 132:-1 133:-0.56 134:-1 135:-0.645217 136:-1 137:-0.586667 138:-1 139:-0.738666 140:-0.451429 141:-1 142:-0.836 143:-1 144:-0.78 145:-1 146:-0.691428 147:-1 148:-1 149:-1 150:-1 151:-1 152:-1 153:-1 154:-1 155:-1 156:-1 157:-0.848889 158:-1 159:-1 160:-0.82 161:-1 162:-1 163:-1 164:-1 165:-0.866667 166:-1 167:-0.95798 168:-0.948445 169:-1 170:-1 171:-0.92225 172:-0.943132 173:-1 174:-1 175:-0.960995 176:-0.963912 177:-0.952592 178:-0.974195 179:-1 180:-1 181:-0.947053 182:-0.961756 183:-1 184:-1 185:-0.985255 186:-0.96042 187:-0.928646 188:-1 189:-0.928439 190:-1 191:-0.927977 192:-0.929765 193:-1 194:-0.929001 195:-1 196:-0.930123 197:-0.993856 198:-0.997856 199:-0.990868 200:-1 201:-1 202:-1 203:-0.996705 204:-1 205:-0.992974 206:-0.994975 207:-0.990577 208:-0.995187 209:-0.993949 210:-0.997131 211:-0.986755 212:-0.974194 213:-0.931624 214:-0.969697 215:-0.939394 216:-0.943396 217:-0.984615 218:-0.984615 219:-0.981982 220:-0.925926 221:-1 222:-0.464036 223:-0.447967 
21.21299573092583 1:-0.890727 2:-0.989448 3:-0.977132 4:-0.0725554 5:-0.237938 6:-0.998827 7:-0.108103 8:-0.970771 9:-0.99569 10:0.210929 11:-0.0748889 12:-0.998092 13:0.0568476 14:-0.997777 15:-0.999394 16:0.174433 17:-0.997474 18:-0.999823 19:0.404158 20:-0.998748 21:-0.999807 22:0.18739 23:-0.999237 24:-1 25:-0.909091 26:-0.575758 27:-0.759597 28:-0.757576 29:-0.757576 30:-0.757576 31:-0.613637 32:-0.755992 33:-0.78111 34:-0.878788 35:-1 36:-1 37:-1 38:-1 39:-1 40:-0.963636 41:-1 42:-0.919172 43:-0.899476 44:-0.927273 45:-0.82197 46:-0.709091 47:-0.854546 48:-0.840285 49:-0.658294 50:-0.939394 51:-1 52:-1 53:-1 54:-1 55:-1 56:-1 57:-1 58:-0.951515 59:-0.945454 60:-0.830303 61:-0.830303 62:-0.829776 63:-0.839394 64:-0.745455 65:-0.981818 66:-0.975758 67:-0.907071 68:-0.817316 69:-0.975758 70:-0.939394 71:-0.785858 72:-0.854546 73:-0.948485 74:-0.952713 75:-1 76:-0.969697 77:-0.845454 78:-0.703762 79:-0.787879 80:-1 81:-1 82:-0.690444 83:-0.834773 84:-1 85:-0.636364 86:-0.930407 87:-1 88:-0.875324 89:-1 90:-0.954545 91:-0.951515 92:-1 93:-1 94:-1 95:-1 96:-0.906493 97:-0.663459 98:-1 99:-0.79116 100:-0.715153 101:-0.818182 102:-0.519194 103:-0.600001 104:-0.509091 105:-0.898396 106:-1 107:-1 108:-0.971717 109:-0.927273 110:-0.971212 111:-0.818182 112:-0.933333 113:-0.927273 114:-0.890909 115:-1 116:-1 117:-0.966667 118:-0.909091 119:-1 120:-1 121:-1 122:-1 123:-1 124:-1 125:-1 126:-1 127:-0.976162 128:-0.0348465 129:-0.294737 130:-0.836364 131:-1 132:-1 133:-1 134:-1 135:-0.856654 136:-0.295962 137:-0.603367 138:-1 139:-1 140:-1 141:-1 142:-0.925454 143:-0.930579 144:-0.599999 145:-0.750549 146:-1 147:-1 148:-1 149:-1 150:-0.563636 151:-0.254547 152:-0.362712 153:-0.894949 154:-1 155:-1 156:-1 157:-1 158:-0.759595 159:-0.794307 160:-0.890909 161:-1 162:-1 163:-1 164:-1 165:-1 166:-1 167:-0.928754 168:-0.873308 169:-0.902218 170:-0.820128 171:-0.865412 172:-0.80465 173:-0.913724 174:-0.785227 175:-0.909946 176:-0.812315 177:-0.879582 178:-0.808124 179:-0.889487 180:-0.812241 181:-0.880793 182:-0.825146 183:-0.943916 184:-0.915741 185:-0.961694 186:-0.961321 187:-0.98513 188:-0.987822 189:-0.985984 190:-0.986362 191:-0.987292 192:-0.987836 193:-0.987458 194:-0.987332 195:-0.988381 196:-0.988193 197:-0.929339 198:-0.901393 199:-0.905632 200:-0.974865 201:-0.979472 202:-0.988235 203:-0.980231 204:-0.990083 205:-0.995316 206:-0.992462 207:-0.988221 208:-0.990373 209:-0.981846 210:-0.974175 211:-0.969095 212:-0.883871 213:-0.726496 214:-0.833333 215:-0.742424 216:-0.660377 217:-0.784615 218:-0.830769 219:-0.765766 220:-0.851852 221:-0.5 222:-0.319992 223:-0.555758 
32 1:-0.895739 2:-0.989506 3:-0.97707 4:-0.0725402 5:-0.237654 6:-0.998823 7:-0.108018 8:-0.972171 9:-0.995973 10:0.211289 11:-0.0804456 12:-0.998106 13:0.0600908 14:-0.997804 15:-0.999327 16:0.174505 17:-0.997362 18:-0.999828 19:0.404141 20:-0.998802 21:-0.9999 22:0.187267 23:-0.999604 24:-1 25:-0.936508 26:-0.733333 27:-0.748149 28:-0.746032 29:-0.746032 30:-0.650794 31:-0.514287 32:-0.744372 33:-0.821645 34:-0.904762 35:-1 36:-1 37:-1 38:-1 39:-0.962907 40:-0.961905 41:-1 42:-0.957662 43:-0.894689 44:-0.961905 45:-0.888095 46:-0.746032 47:-0.822222 48:-0.737068 49:-0.642022 50:-0.904762 51:-1 52:-1 53:-1 54:-1 55:-1 56:-1 57:-1 58:-1 59:-0.885714 60:-0.866667 61:-0.847619 62:-0.82167 63:-0.873809 64:-0.777778 65:-1 66:-0.949206 67:-0.951323 68:-0.904308 69:-0.92381 70:-0.936508 71:-0.730793 72:-0.84762 73:-0.946032 74:-0.950461 75:-1 76:-0.968254 77:-0.892063 78:-0.733991 79:-0.84127 80:-1 81:-1 82:-0.959463 83:-0.757667 84:-1 85:-0.746032 86:-0.927093 87:-1 88:-0.956463 89:-0.974603 90:-0.952381 91:-0.949206 92:-1 93:-1 94:-1 95:-0.961905 96:-0.967347 97:-0.427079 98:-1 99:-0.843725 100:-0.701589 101:-0.809524 102:-0.568255 103:-0.504763 104:-0.357143 105:-0.929038 106:-1 107:-1 108:-0.97037 109:-0.92381 110:-0.969841 111:-0.866667 112:-0.930159 113:-0.84762 114:-0.904762 115:-1 116:-1 117:-0.930159 118:-0.904762 119:-1 120:-1 121:-1 122:-1 123:-1 124:-1 125:-1 126:-1 127:-1 128:-0.566666 129:0.0299102 130:-0.752381 131:-1 132:-1 133:-1 134:-1 135:-0.962457 136:-0.532275 137:-0.300179 138:-0.958277 139:-1 140:-1 141:-1 142:-1 143:-0.854546 144:-0.598412 145:-0.673338 146:-1 147:-1 148:-1 149:-1 150:-0.720635 151:-0.276189 152:-0.198838 153:-1 154:-1 155:-1 156:-1 157:-1 158:-0.733333 159:-0.698317 160:-0.857143 161:-1 162:-1 163:-1 164:-1 165:-1 166:-1 167:-0.912766 168:-0.891589 169:-0.894026 170:-0.813366 171:-0.882694 172:-0.803947 173:-0.886618 174:-0.78236 175:-0.899802 176:-0.783336 177:-0.889004 178:-0.812484 179:-0.887529 180:-0.807461 181:-0.880695 182:-0.826945 183:-0.924463 184:-0.909865 185:-0.962727 186:-0.937378 187:-0.985722 188:-0.987355 189:-0.986078 190:-0.987135 191:-0.986702 192:-0.987845 193:-0.987272 194:-0.987111 195:-0.988378 196:-0.98834 197:-0.929339 198:-0.912111 199:-0.951294 200:-0.94614 201:-0.979472 202:-0.985294 203:-0.99341 204:-0.980165 205:-0.990632 206:-0.98995 207:-0.997644 208:-0.990373 209:-0.987897 210:-0.968436 211:-0.951435 212:-0.896774 213:-0.794872 214:-0.69697 215:-0.757576 216:-0.754717 217:-0.784615 218:-0.784615 219:-0.81982 220:-0.814815 221:-0.916667 222:-0.271986 223:-0.506273 
13.61344043599034 1:-0.952882 2:-0.989453 3:-0.978925 4:-0.0741237 5:-0.237423 6:-0.9994 7:-0.106909 8:-0.974863 9:-0.998617 10:0.210897 11:-0.0779767 12:-0.999727 13:0.0579465 14:-0.999609 15:-0.999927 16:0.173615 17:-0.999913 18:-0.999924 19:0.403622 20:-0.999881 21:-0.9999 22:0.187194 23:-0.999921 24:-1 25:-0.722222 26:-0.513889 27:-0.527779 28:-0.444444 29:-0.444445 30:-0.236111 31:-0.557293 32:-0.813605 33:-0.721321 34:-0.652778 35:-1 36:-1 37:-1 38:-0.861111 39:-0.594298 40:-0.583334 41:-0.79534 42:-0.62954 43:-0.769632 44:-0.583334 45:-0.673611 46:-0.555555 47:-0.666666 48:-0.79085 49:-0.216923 50:-0.861111 51:-1 52:-0.939815 53:-1 54:-1 55:-1 56:-1 57:-1 58:-1 59:-0.916667 60:-1 61:-0.944444 62:-0.804952 63:-0.907986 64:-0.416666 65:-1 66:-1 67:-1 68:-1 69:-1 70:-1 71:-1 72:-0.833334 73:-1 74:-1 75:-1 76:-1 77:-1 78:-1 79:-0.861111 80:-1 81:-1 82:-1 83:-1 84:-0.958333 85:-1 86:-0.920259 87:-1 88:-1 89:-1 90:-1 91:-1 92:-1 93:-1 94:-0.958333 95:-0.916667 96:-0.785714 97:-1 98:-1 99:-1 100:-1 101:-1 102:-1 103:-1 104:-1 105:-1 106:-1 107:-1 108:-1 109:-1 110:-0.868055 111:-1 112:-1 113:-1 114:-1 115:-1 116:-1 117:-1 118:-1 119:-1 120:-1 121:-1 122:-0.925926 123:-0.919312 124:-0.822222 125:-0.888889 126:-0.944444 127:-0.94537 128:-1 129:-1 130:-1 131:-0.833333 132:-0.947222 133:-0.847222 134:-0.875 135:-0.958937 136:-0.842592 137:-0.856482 138:-1 139:-1 140:-0.555556 141:-0.717882 142:-0.259721 143:-0.787879 144:-0.770833 145:-0.761809 146:-0.892857 147:-0.93254 148:-1 149:-0.624999 150:-0.777778 151:-0.708333 152:-0.474238 153:-0.578703 154:-0.805556 155:-0.833334 156:-0.902778 157:-0.947531 158:-1 159:-1 160:-1 161:-1 162:-1 163:-0.430555 164:-0.630951 165:-0.768519 166:-1 167:-0.919465 168:-0.917565 169:-0.888541 170:-0.896004 171:-0.929336 172:-0.919213 173:-0.95516 174:-0.956288 175:-0.919205 176:-0.915925 177:-0.953709 178:-0.938593 179:-0.960192 180:-0.944816 181:-0.961241 182:-0.942588 183:-0.956565 184:-0.934422 185:-0.994769 186:-0.965875 187:-0.988916 188:-0.987474 189:-0.988585 190:-0.988922 191:-0.988841 192:-0.988769 193:-0.988823 194:-0.988687 195:-0.988417 196:-0.988079 197:-0.991807 198:-0.989282 199:-0.990868 200:-0.996409 201:-1 202:-0.997059 203:-0.99341 204:-0.993388 205:-0.997658 206:-0.997487 207:-0.995289 208:-0.995187 209:-0.984871 210:-0.982783 211:-0.977925 212:-0.896774 213:-0.880342 214:-0.863636 215:-0.833333 216:-0.735849 217:-0.815385 218:-0.784615 219:-0.837838 220:-0.777778 221:-0.333333 222:-0.427704 223:-0.195679 
25.45619529625058 1:-0.904762 2:-0.989303 3:-0.976928 4:-0.0724469 5:-0.238112 6:-0.998783 7:-0.108209 8:-0.970624 9:-0.995933 10:0.211057 11:-0.078396 12:-0.998413 13:0.0584728 14:-0.998086 15:-0.999519 16:0.17421 17:-0.998249 18:-0.999824 19:0.404145 20:-0.99882 21:-0.999842 22:0.187353 23:-0.999357 24:-1 25:-0.895833 26:-0.5625 27:-0.645834 28:-0.513889 29:-0.694445 30:-0.791667 31:-0.955729 32:-0.968934 33:-0.972132 34:-0.826389 35:-1 36:-1 37:-1 38:-1 39:-1 40:-1 41:-1 42:-0.953693 43:-1 44:-0.958333 45:-0.836806 46:-0.666667 47:-0.75 48:-0.712419 49:-0.608462 50:-0.861111 51:-1 52:-1 53:-1 54:-0.954861 55:-1 56:-1 57:-1 58:-0.916666 59:-0.916667 60:-0.854167 61:-0.888889 62:-0.902476 63:-0.815972 64:-0.659721 65:-0.916667 66:-0.972222 67:-0.893519 68:-0.843005 69:-0.916666 70:-0.895833 71:-0.509258 72:-0.958333 73:-1 74:-0.945816 75:-1 76:-1 77:-0.822916 78:-0.806034 79:-0.826389 80:-1 81:-1 82:-0.689637 83:-0.810677 84:-1 85:-0.6875 86:-1 87:-0.919192 88:-0.809523 89:-0.944444 90:-0.895833 91:-1 92:-1 93:-1 94:-0.979167 95:-0.958333 96:-0.857142 97:-0.614379 98:-1 99:-0.623964 100:-0.891204 101:-0.861111 102:-0.76389 103:-0.500001 104:-0.343749 105:-1 106:-1 107:-1 108:-0.967593 109:-0.958333 110:-1 111:-0.895833 112:-0.974537 113:-0.750001 114:-0.979167 115:-1 116:-1 117:-1 118:-1 119:-1 120:-1 121:-1 122:-1 123:-1 124:-1 125:-1 126:-1 127:-1 128:-0.368055 129:-0.093934 130:-0.802083 131:-1 132:-1 133:-1 134:-1 135:-0.958937 136:-0.46875 137:-0.330248 138:-1 139:-1 140:-1 141:-1 142:-1 143:-0.814394 144:-0.637153 145:-0.618894 146:-1 147:-1 148:-1 149:-1 150:-0.75 151:-0.333333 152:-0.211356 153:-0.969907 154:-1 155:-1 156:-1 157:-1 158:-0.724537 159:-0.670034 160:-0.84375 161:-1 162:-1 163:-1 164:-1 165:-1 166:-1 167:-0.871228 168:-0.814436 169:-0.907801 170:-0.811901 171:-0.871274 172:-0.807652 173:-0.91106 174:-0.781101 175:-0.91864 176:-0.811543 177:-0.896701 178:-0.852756 179:-0.896055 180:-0.824609 181:-0.889927 182:-0.816909 183:-0.946182 184:-0.915256 185:-0.95675 186:-0.934925 187:-0.985656 188:-0.987494 189:-0.986424 190:-0.986412 191:-0.987258 192:-0.987147 193:-0.987145 194:-0.987245 195:-0.988298 196:-0.988394 197:-0.940604 198:-0.905681 199:-0.920852 200:-0.964093 201:-0.991202 202:-0.979412 203:-0.990115 204:-0.980165 205:-0.995316 206:-0.992462 207:-0.997644 208:-0.990373 209:-0.969743 210:-0.988522 211:-0.95585 212:-0.909677 213:-0.880342 214:-0.909091 215:-0.636364 216:-0.735849 217:-0.830769 218:-0.830769 219:-0.891892 220:-0.777778 221:-0.75 222:-0.289051 223:-0.542558 
32 1:-0.917126 2:-0.996928 3:-0.996755 4:-0.0750451 5:-0.225786 6:-0.99799 7:-0.105041 8:-0.993628 9:-0.998866 10:0.210865 11:-0.0779691 12:-0.999627 13:0.0590696 14:-0.999597 15:-0.999862 16:0.173536 17:-0.999976 18:-0.999988 19:0.403477 20:-0.999998 21:-0.998919 22:0.186938 23:-0.999884 24:-0.976096 25:-0.920319 26:-0.888446 27:-0.864542 28:-0.760956 29:-0.904382 30:-0.721116 31:-0.84761 32:-0.821773 33:-0.968024 34:-1 35:-1 36:-1 37:-1 38:-0.641434 39:-0.720696 40:-0.713148 41:-0.608617 42:-0.681198 43:-0.537429 44:-0.713148 45:-0.765937 46:-0.87251 47:-0.840638 48:-1 49:-0.820297 50:-0.840637 51:-0.952486 52:-0.7583 53:-0.800797 54:-0.741036 55:-0.707171 56:-0.750823 57:-0.880478 58:-0.936255 59:-0.952191 60:-0.916335 61:-0.968128 62:-0.83215 63:-0.630478 64:-0.832669 65:-0.904382 66:-0.904382 67:-0.694556 68:-0.819863 69:-0.808765 70:-0.840637 71:-0.774766 72:-0.952191 73:-0.864541 74:-0.937829 75:-0.964143 76:-0.960159 77:-0.864542 78:-0.833081 79:-0.960159 80:-0.952191 81:-0.760955 82:-0.84738 83:-0.869661 84:-0.904382 85:-0.920319 86:-1 87:-0.814559 88:-0.890723 89:-0.968128 90:-0.820717 91:-1 92:-1 93:-1 94:-0.928287 95:-0.760957 96:-0.877063 97:-0.889384 98:-0.952191 99:-0.882327 100:-1 101:-0.960159 102:-1 103:-1 104:-1 105:-1 106:-1 107:-1 108:-1 109:-0.976096 110:-1 111:-1 112:-1 113:-1 114:-1 115:-1 116:-1 117:-1 118:-1 119:-1 120:-1 121:-1 122:-0.978752 123:-0.699108 124:-0.566534 125:-0.553785 126:-0.856574 127:-0.592563 128:-0.844621 129:-1 130:-1 131:-0.832669 132:-0.364144 133:-0.693227 134:-0.569721 135:-0.764421 136:-0.796812 137:-0.698097 138:-0.895276 139:-1 140:-0.854297 141:-0.870518 142:-0.803984 143:-0.75661 144:-0.956175 145:-0.918009 146:-0.846329 147:-0.574274 148:-0.814077 149:-1 150:-1 151:-1 152:-0.966485 153:-0.965471 154:-0.984064 155:-0.904382 156:-0.888446 157:-0.638778 158:-1 159:-1 160:-1 161:-0.888446 162:-0.800797 163:-1 164:-1 165:-1 166:-0.931702 167:-0.924726 168:-0.96874 169:-0.942744 170:-0.958335 171:-0.939751 172:-0.924445 173:-0.935941 174:-0.921589 175:-0.941463 176:-0.917053 177:-0.943426 178:-0.940073 179:-0.946349 180:-0.95042 181:-0.950086 182:-0.960918 183:-0.97811 184:-0.962844 185:-0.963574 186:-0.956626 187:-0.997158 188:-0.996439 189:-0.996412 190:-0.996421 191:-0.996468 192:-0.996675 193:-0.996678 194:-0.996387 195:-0.996142 196:-0.997039 197:-0.96211 198:-0.92926 199:-0.954338 200:-0.953321 201:-0.985337 202:-0.982353 203:-0.967051 204:-0.993388 205:-0.985948 206:-0.994975 207:-0.981154 208:-0.978339 209:-0.987897 210:-0.968436 211:-0.94702 212:-0.922581 213:-0.692308 214:-0.727273 215:-0.878788 216:-0.811321 217:-0.846154 218:-0.923077 219:-0.981982 220:-1 221:-1 222:-0.375993 223:-0.534917 
32 1:-0.8934 2:-0.989463 3:-0.977259 4:-0.0726453 5:-0.236162 6:-0.998855 7:-0.107504 8:-0.975482 9:-0.995269 10:0.210379 11:-0.0787684 12:-0.998077 13:0.0595041 14:-0.997689 15:-0.999253 16:0.174535 17:-0.997473 18:-0.999834 19:0.404093 20:-0.99894 21:-0.999766 22:0.187448 23:-0.999096 24:-1 25:-0.782609 26:-0.782608 27:-0.648034 28:-0.720497 29:-0.776398 30:-0.720497 31:-0.564442 32:-0.694358 33:-0.775672 34:-0.906832 35:-1 36:-1 37:-1 38:-0.906832 39:-0.963714 40:-0.888199 41:-0.938983 42:-0.958582 43:-0.948489 44:-0.776398 45:-0.744566 46:-0.801242 47:-0.826087 48:-0.836317 49:-0.649804 50:-0.813665 51:-1 52:-1 53:-1 54:-1 55:-1 56:-1 57:-0.968944 58:-0.850932 59:-0.962733 60:-0.978261 61:-0.975155 62:-0.956387 63:-0.876552 64:-0.739131 65:-0.906832 66:-0.975155 67:-0.904762 68:-0.906388 69:-0.950311 70:-1 71:-0.82443 72:-0.925466 73:-1 74:-1 75:-1 76:-1 77:-0.841615 78:-0.826515 79:-0.906832 80:-0.962733 81:-1 82:-0.563785 83:-0.932267 84:-0.925466 85:-0.813665 86:-0.928678 87:-0.963862 88:-0.957409 89:-1 90:-1 91:-1 92:-1 93:-1 94:-1 95:-1 96:-0.712511 97:-1 98:-0.850931 99:-0.694244 100:-0.951346 101:-0.503106 102:-0.542444 103:-0.664597 104:-0.832297 105:-1 106:-1 107:-1 108:-0.942029 109:-0.962733 110:-0.734472 111:-0.944099 112:-0.977226 113:-0.664597 114:-0.981366 115:-1 116:-0.965838 117:-0.795031 118:-1 119:-1 120:-1 121:-1 122:-1 123:-1 124:-1 125:-1 126:-1 127:-1 128:-1 129:0.357963 130:-0.571429 131:-1 132:-1 133:-1 134:-1 135:-1 136:-0.771221 137:0.0269114 138:-0.836735 139:-1 140:-1 141:-1 142:-1 143:-0.881423 144:-0.692546 145:-0.893479 146:-1 147:-1 148:-1 149:-1 150:-0.776398 151:-0.0683191 152:-0.346879 153:-1 154:-1 155:-1 156:-1 157:-1 158:-0.710145 159:-0.725955 160:-1 161:-1 162:-1 163:-1 164:-1 165:-1 166:-1 167:-0.888655 168:-0.814702 169:-0.90151 170:-0.816853 171:-0.882704 172:-0.822581 173:-0.906395 174:-0.778288 175:-0.909072 176:-0.811321 177:-0.884036 178:-0.815473 179:-0.866308 180:-0.80808 181:-0.958992 182:-0.945381 183:-0.95325 184:-0.931454 185:-0.94568 186:-0.939902 187:-0.98716 188:-0.985908 189:-0.987682 190:-0.986796 191:-0.98804 192:-0.98748 193:-0.987285 194:-0.989009 195:-0.988327 196:-0.988952 197:-0.937532 198:-0.890675 199:-0.933029 200:-0.956912 201:-0.979472 202:-0.985294 203:-0.983526 204:-0.986777 205:-0.990632 206:-0.987437 207:-0.995289 208:-0.980746 209:-0.97882 210:-0.982783 211:-0.969095 212:-0.832258 213:-0.74359 214:-0.787879 215:-0.833333 216:-0.792453 217:-0.784615 218:-0.784615 219:-0.747748 220:-0.851852 221:-0.666667 222:-0.239116 223:-0.49043 
32 1:-0.896408 2:-0.989448 3:-0.977035 4:-0.0725705 5:-0.237278 6:-0.998837 7:-0.107869 8:-0.973102 9:-0.995869 10:0.211355 11:-0.0815071 12:-0.998154 13:0.0584546 14:-0.997838 15:-0.999293 16:0.174513 17:-0.997446 18:-0.999809 19:0.404182 20:-0.998786 21:-0.99987 22:0.18731 23:-0.99948 24:-1 25:-0.936102 26:-0.686901 27:-0.710331 28:-0.744409 29:-0.744409 30:-0.744409 31:-0.633387 32:-0.714154 33:-0.743579 34:-0.872204 35:-1 36:-1 37:-1 38:-1 39:-0.92534 40:-0.961661 41:-1 42:-0.957391 43:-0.894016 44:-0.961661 45:-0.812301 46:-0.795526 47:-0.897763 48:-0.759444 49:-0.567681 50:-0.872204 51:-1 52:-1 53:-1 54:-1 55:-1 56:-1 57:-1 58:-0.897763 59:-0.942492 60:-0.84345 61:-0.795527 62:-0.910265 63:-0.873003 64:-0.776358 65:-0.980831 66:-0.974441 67:-0.853035 68:-0.903697 69:-0.923323 70:-0.936102 71:-0.638764 72:-0.923323 73:-0.972843 74:-1 75:-1 76:-1 77:-0.837061 78:-0.776909 79:-0.744409 80:-1 81:-1 82:-0.79602 83:-0.860638 84:-1 85:-0.648562 86:-0.926628 87:-1 88:-0.956184 89:-0.974441 90:-1 91:-1 92:-1 93:-0.968051 94:-1 95:-0.961661 96:-1 97:-0.600827 98:-1 99:-0.716907 100:-0.799787 101:-0.808307 102:-0.565496 103:-0.539937 104:-0.439297 105:-0.928585 106:-1 107:-1 108:-0.955272 109:-0.942492 110:-0.969648 111:-0.865815 112:-0.929712 113:-0.808308 114:-0.961661 115:-1 116:-1 117:-0.929712 118:-0.968051 119:-1 120:-1 121:-1 122:-1 123:-1 124:-1 125:-1 126:-1 127:-1 128:-0.48083 129:0.0590235 130:-0.760384 131:-1 132:-1 133:-1 134:-1 135:-0.943325 136:-0.420662 137:-0.361733 138:-1 139:-1 140:-1 141:-1 142:-1 143:-0.853616 144:-0.578274 145:-0.737 146:-1 147:-1 148:-1 149:-1 150:-0.667732 151:-0.348243 152:-0.193719 153:-1 154:-1 155:-1 156:-1 157:-1 158:-0.806177 159:-0.653016 160:-0.913738 161:-1 162:-1 163:-1 164:-1 165:-1 166:-1 167:-0.910953 168:-0.807259 169:-0.904673 170:-0.801843 171:-0.87897 172:-0.810515 173:-0.911136 174:-0.779083 175:-0.905077 176:-0.810585 177:-0.879765 178:-0.809323 179:-0.878234 180:-0.816152 181:-0.885318 182:-0.823214 183:-0.949217 184:-0.916503 185:-0.955341 186:-0.963477 187:-0.985853 188:-0.987463 189:-0.986169 190:-0.986282 191:-0.987331 192:-0.987812 193:-0.987403 194:-0.987167 195:-0.988341 196:-0.988147 197:-0.925243 198:-0.927117 199:-0.920852 200:-0.967684 201:-0.985337 202:-0.991176 203:-0.990115 204:-0.986777 205:-0.990632 206:-0.994975 207:-0.990577 208:-0.980746 209:-0.981846 210:-0.985653 211:-0.969095 212:-0.858065 213:-0.74359 214:-0.742424 215:-0.742424 216:-0.735849 217:-0.738462 218:-0.769231 219:-0.855856 220:-0.851852 221:-1 222:-0.230376 223:-0.472581 
32 1:-0.852297 2:-0.991987 3:-0.997699 4:-0.0731609 5:-0.227905 6:-0.989988 7:-0.113544 8:-0.978543 9:-0.993213 10:0.210823 11:-0.073915 12:-0.996462 13:0.05926 14:-0.995878 15:-0.998838 16:0.171723 17:-0.994308 18:-0.999936 19:0.403201 20:-0.999412 21:-0.999938 22:0.187031 23:-0.999634 24:-1 25:-0.955056 26:-0.779776 27:-0.643446 28:-0.707865 29:-0.730337 30:-0.460674 31:-0.541573 32:-0.879367 33:-0.783569 34:-0.775281 35:-0.895262 36:-1 37:-1 38:-1 39:-0.658663 40:-0.595506 41:-0.867546 42:-0.730273 43:-0.850908 44:-0.649439 45:-0.815169 46:-0.78427 47:-0.92809 48:-0.9154 49:-0.82262 50:-0.775281 51:-0.772202 52:-1 53:-1 54:-1 55:-1 56:-1 57:-1 58:-1 59:-1 60:-1 61:-1 62:-1 63:-1 64:-1 65:-1 66:-1 67:-1 68:-1 69:-1 70:-1 71:-1 72:-1 73:-1 74:-1 75:-1 76:-1 77:-1 78:-1 79:-1 80:-1 81:-0.932584 82:-0.856525 83:-0.77945 84:-0.878652 85:-0.797753 86:-0.819373 87:-0.869254 88:-0.907544 89:-0.982022 90:-1 91:-1 92:-1 93:-1 94:-0.824719 95:-0.514608 96:-0.699518 97:-0.656841 98:-0.676405 99:-0.823006 100:-0.753559 101:-0.820225 102:-0.694383 103:-0.622472 104:-0.726966 105:-0.949769 106:-1 107:-1 108:-0.989513 109:-0.973034 110:-0.935955 111:-0.946067 112:-0.901124 113:-0.946068 114:-0.946067 115:-0.932584 116:-0.950562 117:-0.975281 118:-1 119:-0.974532 120:-1 121:-1 122:-1 123:-1 124:-1 125:-1 126:-1 127:-1 128:-0.766292 129:0.664104 130:-0.514606 131:-1 132:-1 133:-1 134:-1 135:-1 136:-1 137:-0.73683 138:-0.645586 139:-0.926591 140:-1 141:-1 142:-1 143:-1 144:-1 145:-1 146:-1 147:-1 148:-1 149:-1 150:-0.478652 151:-0.042693 152:-0.45179 153:-1 154:-1 155:-1 156:-1 157:-1 158:-0.800749 159:-0.450868 160:-0.555056 161:-1 162:-1 163:-1 164:-1 165:-1 166:-1 167:-0.902103 168:-0.838833 169:-0.87754 170:-0.802338 171:-0.869927 172:-0.80668 173:-0.867374 174:-0.769443 175:-0.87646 176:-0.759334 177:-0.890935 178:-0.780491 179:-0.88498 180:-0.771805 181:-0.890029 182:-0.773642 183:-0.922219 184:-0.801083 185:-0.967487 186:-0.96669 187:-0.988213 188:-0.989085 189:-0.989414 190:-0.988794 191:-0.990005 192:-0.989853 193:-0.989333 194:-0.990174 195:-0.990052 196:-0.991617 197:-0.958013 198:-0.946409 199:-0.85997 200:-0.852783 201:-0.970674 202:-0.985294 203:-0.976936 204:-0.966942 205:-0.985948 206:-0.979899 207:-0.985866 208:-0.980746 209:-0.975794 210:-0.982783 211:-0.92053 212:-0.858065 213:-0.487179 214:-0.757576 215:-0.651515 216:-0.660377 217:-0.6 218:-0.630769 219:-0.621622 220:-0.296296 221:-0.166667 222:-0.124572 223:-0.262464 
32 1:-0.898413 2:-0.989472 3:-0.976572 4:-0.0729021 5:-0.234461 6:-0.998986 7:-0.10675 8:-0.980601 9:-0.994923 10:0.210155 11:-0.0767376 12:-0.997441 13:0.0562245 14:-0.996971 15:-0.999419 16:0.174665 17:-0.995864 18:-0.999909 19:0.403974 20:-0.998783 21:-0.999982 22:0.187169 23:-0.999863 24:-0.990228 25:-0.80456 26:-0.543973 27:-0.70467 28:-0.609121 29:-0.765472 30:-0.739414 31:-0.543161 32:-0.82514 33:-0.790854 34:-0.641694 35:-0.658405 36:-0.821124 37:-0.982372 38:-0.934853 39:-0.847763 40:-0.960912 41:-0.872004 42:-0.869676 43:-0.837917 44:-0.804561 45:-0.808633 46:-0.791531 47:-0.921824 48:-0.926423 49:-0.926539 50:-0.739414 51:-0.786344 52:-1 53:-1 54:-1 55:-1 56:-1 57:-1 58:-1 59:-1 60:-1 61:-1 62:-1 63:-1 64:-1 65:-0.980456 66:-0.973941 67:-0.900109 68:-0.950907 69:-0.921824 70:-0.869707 71:-1 72:-1 73:-1 74:-1 75:-1 76:-1 77:-1 78:-1 79:-1 80:-0.960912 81:-1 82:-0.584065 83:-1 84:-0.765472 85:-1 86:-1 87:-1 88:-1 89:-1 90:-1 91:-1 92:-1 93:-1 94:-0.980456 95:-1 96:-0.66496 97:-1 98:-0.570034 99:-0.903792 100:-0.183498 101:-0.478827 102:-0.372423 103:-1 104:-1 105:-1 106:-1 107:-1 108:-0.939197 109:-0.941368 110:-0.659609 111:-0.941368 112:-0.761129 113:-1 114:-1 115:-1 116:-0.928339 117:-1 118:-1 119:-1 120:-1 121:-1 122:-1 123:-1 124:-1 125:-1 126:-1 127:-1 128:-0.894137 129:0.171612 130:-0.345277 131:-1 132:-1 133:-1 134:-1 135:-1 136:-1 137:-0.528774 138:-0.550489 139:-1 140:-1 141:-1 142:-0.97329 143:-0.676636 144:-1 145:-1 146:-1 147:-1 148:-1 149:-1 150:-0.765472 151:0.309447 152:-0.808191 153:-0.97177 154:-1 155:-1 156:-1 157:-1 158:-0.635179 159:-0.579904 160:-0.970684 161:-1 162:-1 163:-1 164:-1 165:-1 166:-1 167:-0.889534 168:-0.789038 169:-0.905277 170:-0.801601 171:-0.886877 172:-0.796444 173:-0.913629 174:-0.763311 175:-0.896635 176:-0.794298 177:-0.887212 178:-0.793736 179:-0.882442 180:-0.781871 181:-0.935464 182:-0.949732 183:-0.967232 184:-0.954023 185:-0.958823 186:-0.955102 187:-0.987152 188:-0.985667 189:-0.987642 190:-0.986071 191:-0.987555 192:-0.987585 193:-0.986734 194:-0.988768 195:-0.988071 196:-0.988928 197:-0.933436 198:-0.897106 199:-0.933029 200:-0.953321 201:-0.979472 202:-0.991176 203:-0.976936 204:-0.990083 205:-1 206:-0.994975 207:-0.992933 208:-0.990373 209:-0.990923 210:-0.988522 211:-0.960265 212:-0.909677 213:-0.863248 214:-0.80303 215:-0.863636 216:-0.679245 217:-0.661538 218:-0.784615 219:-0.801802 220:-0.777778 221:-0.583333 222:-0.253321 223:-0.52045 
32 1:-0.90543 2:-0.989559 3:-0.976842 4:-0.0726407 5:-0.234755 6:-0.998862 7:-0.107028 8:-0.979765 9:-0.995345 10:0.210535 11:-0.0736154 12:-0.997706 13:0.0591488 14:-0.99728 15:-0.999115 16:0.174792 17:-0.996628 18:-0.999862 19:0.404022 20:-0.999025 21:-0.99996 22:0.187191 23:-0.999838 24:-1 25:-0.79021 26:-0.755245 27:-0.762239 28:-0.545455 29:-0.664336 30:-0.86014 31:-0.777098 32:-0.843584 33:-0.831623 34:-0.79021 35:-0.388872 36:-0.923196 37:-0.962155 38:-0.965035 39:-0.836584 40:-0.958042 41:-0.965651 42:-0.766844 43:-0.88401 44:-0.874126 45:-0.876749 46:-0.776224 47:-0.916084 48:-0.92102 49:-0.84229 50:-0.72028 51:-0.833204 52:-1 53:-1 54:-1 55:-1 56:-1 57:-1 58:-1 59:-1 60:-1 61:-1 62:-1 63:-1 64:-1 65:-1 66:-0.916084 67:-0.892774 68:-0.894605 69:-0.944056 70:-0.93007 71:-1 72:-1 73:-1 74:-1 75:-1 76:-1 77:-1 78:-1 79:-1 80:-1 81:-0.947552 82:-0.419583 83:-1 84:-0.664335 85:-1 86:-0.678804 87:-0.755881 88:-0.760239 89:-1 90:-1 91:-1 92:-1 93:-1 94:-1 95:-0.958042 96:-0.496503 97:-1 98:-0.37063 99:-0.931152 100:-0.34266 101:-0.51049 102:-0.48485 103:-1 104:-1 105:-1 106:-1 107:-1 108:-0.951049 109:-0.916084 110:-0.833916 111:-0.937063 112:-0.948718 113:-1 114:-1 115:-1 116:-1 117:-1 118:-1 119:-1 120:-1 121:-1 122:-1 123:-1 124:-1 125:-1 126:-1 127:-1 128:-1 129:-0.0136186 130:-0.486013 131:-1 132:-1 133:-1 134:-1 135:-1 136:-1 137:-0.445999 138:-0.425575 139:-1 140:-1 141:-1 142:-0.971329 143:-0.599491 144:-1 145:-1 146:-1 147:-1 148:-1 149:-1 150:-0.86014 151:0.531472 152:-0.529387 153:-0.969697 154:-1 155:-1 156:-1 157:-1 158:-0.755244 159:-0.525323 160:-0.937063 161:-1 162:-1 163:-1 164:-1 165:-1 166:-1 167:-0.902721 168:-0.807023 169:-0.902335 170:-0.803415 171:-0.877122 172:-0.801643 173:-0.878485 174:-0.770852 175:-0.875254 176:-0.806938 177:-0.884521 178:-0.792104 179:-0.880333 180:-0.79627 181:-0.946054 182:-0.947026 183:-0.961159 184:-0.959966 185:-0.963664 186:-0.960852 187:-0.986408 188:-0.985963 189:-0.988212 190:-0.986075 191:-0.987264 192:-0.986466 193:-0.98732 194:-0.989073 195:-0.988691 196:-0.989478 197:-0.925243 198:-0.903537 199:-0.91172 200:-0.964093 201:-0.994135 202:-0.982353 203:-0.973641 204:-0.990083 205:-0.990632 206:-0.997487 207:-1 208:-0.990373 209:-0.990923 210:-0.985653 211:-0.98234 212:-0.935484 213:-0.880342 214:-0.80303 215:-0.80303 216:-0.716981 217:-0.892308 218:-0.815385 219:-0.837838 220:-0.814815 221:-0.916667 222:-0.28222 223:-0.587539 
5.414438862206994 1:-0.925146 2:-0.995667 3:-0.996942 4:-0.0743672 5:-0.226421 6:-0.996531 7:-0.106363 8:-0.992259 9:-0.999028 10:0.211101 11:-0.0779857 12:-0.999584 13:0.0591752 14:-0.999566 15:-0.999922 16:0.173499 17:-0.999909 18:-0.999969 19:0.403424 20:-0.999943 21:-0.999896 22:0.187072 23:-0.999917 24:-1 25:-1 26:-1 27:-1 28:-0.735683 29:-1 30:-1 31:-1 32:-1 33:-1 34:-1 35:-1 36:-1 37:-1 38:-0.69163 39:-1 40:-1 41:-1 42:-1 43:-1 44:-1 45:-0.948238 46:-1 47:-1 48:-1 49:-0.950325 50:-1 51:-0.947463 52:-0.770925 53:-0.69163 54:-0.885462 55:-0.838105 56:-0.921279 57:-1 58:-0.964758 59:-1 60:-1 61:-1 62:-0.938134 63:-0.94163 64:-0.753304 65:-0.947137 66:-0.859031 67:-0.324523 68:-0.66803 69:-0.894273 70:-0.69163 71:-0.875477 72:-0.68282 73:-0.887665 74:-0.793767 75:-0.920705 76:-0.867841 77:-0.85022 78:-0.69239 79:-0.823789 80:-0.762114 81:-0.405285 82:-0.774993 83:-0.711762 84:-0.973568 85:-0.911894 86:-0.595321 87:-0.897477 88:-0.879169 89:-0.894273 90:-0.735683 91:-0.859031 92:-0.911894 93:-0.911894 94:-0.894273 95:-0.52423 96:-0.682819 97:-0.755378 98:-0.894273 99:-0.869885 100:-0.654921 101:-1 102:-0.900147 103:-0.788547 104:-0.940529 105:-0.901529 106:-1 107:-1 108:-1 109:-1 110:-1 111:-0.920705 112:-0.935389 113:-0.84141 114:-0.894273 115:-0.955947 116:-0.709251 117:-0.854625 118:-0.955947 119:-1 120:-1 121:-1 122:-0.976505 123:-0.846444 124:-0.605286 125:-0.788546 126:-0.894273 127:-0.72276 128:-0.885463 129:-1 130:-1 131:-0.682819 132:-0.363877 133:-0.709251 134:-0.735682 135:-0.687416 136:-0.92511 137:-0.726872 138:-0.971051 139:-1 140:-0.355569 141:-0.677863 142:-0.855507 143:-0.798158 144:-0.903084 145:-0.848901 146:-0.864066 147:-0.871617 148:-0.917768 149:-0.762114 150:-0.929515 151:-0.973568 152:-0.740593 153:-0.847284 154:-0.964758 155:-0.859031 156:-0.876652 157:-0.633872 158:-1 159:-1 160:-1 161:-0.958884 162:-1 163:-1 164:-1 165:-0.911894 166:-0.905601 167:-0.951487 168:-0.952865 169:-0.9546 170:-0.966689 171:-0.949103 172:-0.954749 173:-0.95205 174:-0.916039 175:-0.943769 176:-0.954436 177:-0.941444 178:-0.953877 179:-0.943226 180:-0.984215 181:-0.944992 182:-0.930362 183:-0.977442 184:-0.956169 185:-0.967856 186:-0.954333 187:-0.995771 188:-0.995179 189:-0.995269 190:-0.995057 191:-0.995109 192:-0.995403 193:-0.995394 194:-0.995199 195:-0.994685 196:-0.995692 197:-0.966206 198:-0.920686 199:-0.872146 200:-0.964093 201:-0.97654 202:-0.979412 203:-0.980231 204:-0.993388 205:-0.995316 206:-0.992462 207:-0.985866 208:-0.995187 209:-0.987897 210:-0.991392 211:-0.986755 212:-0.948387 213:-0.91453 214:-0.909091 215:-0.909091 216:-0.849057 217:-0.8 218:-0.892308 219:-0.891892 220:-0.962963 221:-0.916667 222:-0.328636 223:-0.600468 
32 1:-0.902423 2:-0.989849 3:-0.977408 4:-0.0727294 5:-0.232876 6:-0.998876 7:-0.106469 8:-0.982778 9:-0.995242 10:0.210572 11:-0.0786098 12:-0.99773 13:0.0582014 14:-0.997308 15:-0.998871 16:0.174872 17:-0.997002 18:-0.999838 19:0.404011 20:-0.999205 21:-0.999955 22:0.187188 23:-0.999868 24:-1 25:-0.830508 26:-0.667796 27:-0.731074 28:-0.423729 29:-0.538983 30:-0.694915 31:-0.567797 32:-0.75737 33:-0.75514 34:-0.423729 35:-0.723508 36:-0.962769 37:-1 38:-1 39:-0.960392 40:-1 41:-0.966699 42:-0.909583 43:-0.887549 44:-0.918644 45:-0.880509 46:-0.891525 47:-0.918644 48:-0.974477 49:-0.770651 50:-0.762712 51:-0.818079 52:-1 53:-1 54:-1 55:-1 56:-1 57:-1 58:-1 59:-1 60:-1 61:-1 62:-1 63:-1 64:-0.905085 65:-0.938983 66:-0.945763 67:-0.844068 68:-0.897821 69:-0.945763 70:-0.898305 71:-1 72:-1 73:-1 74:-1 75:-1 76:-1 77:-1 78:-1 79:-1 80:-0.979661 81:-1 82:-0.567146 83:-1 84:-0.654237 85:-1 86:-0.727528 87:-0.842219 88:-0.814043 89:-1 90:-1 91:-1 92:-1 93:-1 94:-0.979661 95:-1 96:-0.54673 97:-0.905882 98:-0.552544 99:-0.933252 100:-0.522035 101:-0.525424 102:-0.500566 103:-1 104:-1 105:-1 106:-1 107:-1 108:-0.952542 109:-0.938983 110:-0.90339 111:-0.959322 112:-0.875706 113:-1 114:-1 115:-1 116:-0.962712 117:-1 118:-1 119:-1 120:-1 121:-1 122:-1 123:-1 124:-1 125:-1 126:-1 127:-1 128:-1 129:0.147548 130:-0.196609 131:-1 132:-1 133:-1 134:-1 135:-1 136:-1 137:-0.813183 138:-0.487652 139:-1 140:-1 141:-1 142:-0.944407 143:-0.559939 144:-0.962712 145:-1 146:-1 147:-1 148:-1 149:-1 150:-0.783051 151:0.159321 152:-0.401166 153:-1 154:-1 155:-1 156:-1 157:-1 158:-0.841808 159:-0.562815 160:-0.969491 161:-1 162:-1 163:-1 164:-1 165:-1 166:-1 167:-0.922789 168:-0.892492 169:-0.892294 170:-0.818677 171:-0.870141 172:-0.801796 173:-0.883265 174:-0.778858 175:-0.869541 176:-0.817066 177:-0.875599 178:-0.810191 179:-0.864062 180:-0.810175 181:-0.947808 182:-0.960419 183:-0.967057 184:-0.942933 185:-0.959984 186:-0.951646 187:-0.985288 188:-0.98624 189:-0.987827 190:-0.986738 191:-0.987805 192:-0.986968 193:-0.987597 194:-0.989479 195:-0.988725 196:-0.989407 197:-0.942652 198:-0.873526 199:-0.936073 200:-0.942549 201:-0.991202 202:-0.988235 203:-0.98682 204:-0.996694 205:-0.98829 206:-0.98995 207:-0.992933 208:-0.990373 209:-0.990923 210:-0.994261 211:-0.986755 212:-0.858065 213:-0.91453 214:-0.833333 215:-0.893939 216:-0.660377 217:-0.753846 218:-0.815385 219:-0.81982 220:-0.703704 221:-0.416667 222:-0.251683 223:-0.539121 
32 1:-0.893734 2:-0.989093 3:-0.97633 4:-0.0732236 5:-0.23411 6:-0.999119 7:-0.106445 8:-0.981901 9:-0.994433 10:0.210577 11:-0.0833025 12:-0.997065 13:0.0595005 14:-0.996523 15:-0.999569 16:0.174594 17:-0.99511 18:-0.999948 19:0.403838 20:-0.998892 21:-0.999955 22:0.187244 23:-0.999457 24:-0.990654 25:-0.750779 26:-0.345793 27:-0.682244 28:-0.688474 29:-0.750779 30:-0.688474 31:-0.642524 32:-0.804894 33:-0.524943 34:-0.750779 35:-0.709604 36:-0.863139 37:-0.966282 38:-0.906542 39:-0.890802 40:-0.850467 41:-0.90819 42:-0.87536 43:-0.793314 44:-0.813085 45:-0.890187 46:-0.750779 47:-0.850467 48:-0.88272 49:-0.824357 50:-0.875389 51:-0.814238 52:-1 53:-1 54:-1 55:-1 56:-1 57:-1 58:-1 59:-1 60:-1 61:-1 62:-1 63:-1 64:-1 65:-1 66:-1 67:-1 68:-1 69:-1 70:-1 71:-1 72:-1 73:-1 74:-1 75:-1 76:-1 77:-1 78:-1 79:-1 80:-0.925233 81:-0.859813 82:-0.562427 83:-0.932056 84:-0.719626 85:-1 86:-1 87:-1 88:-1 89:-1 90:-1 91:-1 92:-1 93:-1 94:-0.981308 95:-1 96:-0.743658 97:-0.956753 98:-0.663552 99:-0.907988 100:-0.267915 101:-0.501558 102:-0.329182 103:-1 104:-1 105:-1 106:-1 107:-1 108:-0.927311 109:-0.981308 110:-0.644859 111:-0.962617 112:-0.748702 113:-1 114:-1 115:-1 116:-1 117:-1 118:-1 119:-1 120:-1 121:-1 122:-1 123:-1 124:-1 125:-1 126:-1 127:-1 128:-0.979751 129:0.472047 130:-0.177571 131:-1 132:-1 133:-1 134:-1 135:-1 136:-1 137:-0.549325 138:-0.87717 139:-1 140:-1 141:-1 142:-1 143:-0.857264 144:-1 145:-1 146:-1 147:-1 148:-1 149:-1 150:-0.52648 151:0.0654211 152:-0.79035 153:-1 154:-1 155:-1 156:-1 157:-1 158:-0.563863 159:-0.640518 160:-0.971963 161:-1 162:-1 163:-1 164:-1 165:-1 166:-1 167:-0.900441 168:-0.76154 169:-0.910568 170:-0.761883 171:-0.875366 172:-0.75758 173:-0.922623 174:-0.754467 175:-0.900054 176:-0.774241 177:-0.885343 178:-0.769035 179:-0.960273 180:-0.943289 181:-0.946259 182:-0.945569 183:-0.977469 184:-0.956823 185:-0.956348 186:-0.963934 187:-0.987203 188:-0.985882 189:-0.987349 190:-0.986805 191:-0.987112 192:-0.986701 193:-0.988583 194:-0.9885 195:-0.988159 196:-0.988713 197:-0.935484 198:-0.888532 199:-0.936073 200:-0.949731 201:-0.982405 202:-0.988235 203:-0.99341 204:-0.983471 205:-1 206:-0.98995 207:-1 208:-0.990373 209:-0.981846 210:-0.988522 211:-0.969095 212:-0.883871 213:-0.726496 214:-0.742424 215:-0.727273 216:-0.698113 217:-0.738462 218:-0.661538 219:-0.873874 220:-0.851852 221:-0.916667 222:-0.24482 223:-0.493277 
1.752742389730543 1:-0.954553 2:-0.973535 3:-0.993088 4:-0.0646373 5:-0.231276 6:-0.974554 7:-0.121331 8:-0.977227 9:-0.999199 10:0.210978 11:-0.078276 12:-0.999601 13:0.0590249 14:-0.999584 15:-0.999863 16:0.173496 17:-0.999943 18:-0.999992 19:0.403473 20:-0.999992 21:-0.999825 22:0.187067 23:-0.999944 24:-1 25:-1 26:-1 27:-1 28:-0.856115 29:-1 30:-1 31:-1 32:-0.742533 33:-0.826778 34:-1 35:-1 36:-1 37:-1 38:-0.928058 39:-0.831882 40:-0.827338 41:-1 42:-0.712162 43:-0.642019 44:-0.913669 45:-1 46:-0.769784 47:-0.884892 48:-1 49:-0.837751 50:-1 51:-1 52:-0.750599 53:-0.784173 54:-0.532374 55:-1 56:-0.871442 57:-0.784173 58:-0.71223 59:-1 60:-0.798561 61:-0.827338 62:-0.595871 63:-1 64:-0.798561 65:-1 66:-1 67:-0.669066 68:-0.783144 69:-1 70:-0.784173 71:-0.796642 72:-0.827338 73:-1 74:-0.775469 75:-0.870503 76:-0.784173 77:-1 78:-0.899529 79:-0.856115 80:-1 81:-0.892086 82:-0.724406 83:-1 84:-0.913669 85:-0.856115 86:-0.66956 87:-1 88:-0.704008 89:-0.827338 90:-0.784172 91:-0.884892 92:-0.784173 93:-1 94:-1 95:-1 96:-1 97:-1 98:-0.827338 99:-0.787511 100:-0.661872 101:-1 102:-0.836931 103:-0.654677 104:-1 105:-1 106:-1 107:-1 108:-1 109:-1 110:-1 111:-1 112:-0.788968 113:-0.741008 114:-0.827338 115:-1 116:-0.76259 117:-0.841726 118:-1 119:-1 120:-1 121:-1 122:-0.923261 123:-1 124:-1 125:-0.884892 126:-0.884892 127:-0.943405 128:-0.812949 129:-1 130:-1 131:-0.741007 132:-0.671942 133:-0.76259 134:-0.741007 135:-0.574601 136:-0.510791 137:-0.553957 138:-1 139:-1 140:-1 141:-0.883094 142:-0.469064 143:-0.615435 144:-0.841726 145:-0.654537 146:-0.722508 147:-0.371016 148:-1 149:-1 150:-0.884892 151:-0.870504 152:-0.939481 153:-0.93765 154:-1 155:-0.942446 156:-0.848921 157:-0.782574 158:-0.865707 159:-0.902333 160:-1 161:-1 162:-1 163:-1 164:-1 165:-1 166:-0.845838 167:-0.942349 168:-0.931543 169:-0.947017 170:-0.942395 171:-0.948869 172:-0.924799 173:-0.953373 174:-0.932498 175:-0.931771 176:-0.952688 177:-0.940638 178:-0.930289 179:-0.937214 180:-0.93323 181:-0.962408 182:-0.960452 183:-0.969706 184:-0.973982 185:-0.980273 186:-0.998881 187:-0.972519 188:-0.971462 189:-0.97176 190:-0.97226 191:-0.972818 192:-0.972557 193:-0.972791 194:-0.971782 195:-0.970808 196:-0.971803 197:-0.982591 198:-0.92926 199:-0.939117 200:-0.974865 201:-0.991202 202:-1 203:-0.980231 204:-1 205:-0.992974 206:-1 207:-0.992933 208:-0.99278 209:-0.975794 210:-0.997131 211:-0.995585 212:-0.96129 213:-0.91453 214:-0.939394 215:-0.969697 216:-0.924528 217:-0.907692 218:-0.969231 219:-0.927928 220:-0.962963 221:-0.916667 222:-0.255655 223:-0.543477 
31.25811117874632 1:-0.898747 2:-0.989482 3:-0.976705 4:-0.0733873 5:-0.23439 6:-0.999168 7:-0.10647 8:-0.982232 9:-0.994934 10:0.211059 11:-0.0780375 12:-0.996744 13:0.057683 14:-0.996242 15:-0.999285 16:0.17496 17:-0.994603 18:-0.999926 19:0.4039 20:-0.998917 21:-0.99993 22:0.187272 23:-0.999445 24:-1 25:-0.771242 26:-0.725491 27:-0.740742 28:-0.705882 29:-0.529412 30:-0.673203 31:-0.666667 32:-0.766092 33:-0.816399 34:-0.771242 35:-0.619211 36:-0.569293 37:-0.858516 38:-1 39:-0.809081 40:-0.803922 41:-0.871585 42:-0.825666 43:-0.783183 44:-0.843138 45:-0.884804 46:-0.843137 47:-0.921569 48:-0.901576 49:-0.889448 50:-0.836601 51:-0.844106 52:-1 53:-1 54:-1 55:-1 56:-1 57:-1 58:-1 59:-1 60:-1 61:-1 62:-1 63:-1 64:-1 65:-1 66:-0.973856 67:-0.949891 68:-1 69:-1 70:-1 71:-1 72:-1 73:-1 74:-1 75:-1 76:-1 77:-1 78:-1 79:-1 80:-0.960784 81:-0.901961 82:-0.582707 83:-0.893088 84:-0.784314 85:-1 86:-1 87:-1 88:-1 89:-1 90:-1 91:-1 92:-1 93:-1 94:-1 95:-1 96:-0.596638 97:-1 98:-0.490197 99:-0.967826 100:-0.0784349 101:-0.542484 102:-0.555556 103:-1 104:-1 105:-1 106:-1 107:-1 108:-0.923747 109:-0.941176 110:-0.720587 111:-0.941176 112:-0.808279 113:-0.921569 114:-1 115:-0.93464 116:-0.928104 117:-1 118:-1 119:-1 120:-1 121:-1 122:-1 123:-1 124:-1 125:-1 126:-1 127:-1 128:-1 129:0.45201 130:-0.235294 131:-1 132:-1 133:-1 134:-1 135:-1 136:-1 137:-0.549746 138:-0.763772 139:-1 140:-1 141:-1 142:-1 143:-0.875223 144:-1 145:-1 146:-1 147:-1 148:-1 149:-1 150:-0.738562 151:0.176469 152:-0.560146 153:-1 154:-1 155:-1 156:-1 157:-1 158:-0.710239 159:-0.467617 160:-1 161:-1 162:-1 163:-1 164:-1 165:-1 166:-1 167:-0.905503 168:-0.743701 169:-0.907056 170:-0.752215 171:-0.880554 172:-0.763269 173:-0.907195 174:-0.731458 175:-0.88927 176:-0.76378 177:-0.880147 178:-0.755871 179:-0.884081 180:-0.754824 181:-0.956767 182:-0.940827 183:-0.960319 184:-0.947873 185:-0.951412 186:-0.966874 187:-0.986721 188:-0.986176 189:-0.988026 190:-0.986207 191:-0.987667 192:-0.986856 193:-0.987712 194:-0.989183 195:-0.988583 196:-0.989644 197:-0.936508 198:-0.912111 199:-0.933029 200:-0.949731 201:-0.97654 202:-0.985294 203:-0.98682 204:-0.996694 205:-0.995316 206:-0.992462 207:-0.997644 208:-0.99278 209:-0.975794 210:-0.985653 211:-0.95585 212:-0.974194 213:-0.811966 214:-0.848485 215:-0.712121 216:-0.641509 217:-0.676923 218:-0.769231 219:-0.855856 220:-0.740741 221:-0.75 222:-0.266245 223:-0.504455 
13.07238777841193 1:-0.980618 2:-0.959971 3:-0.986484 4:-0.0560466 5:-0.234241 6:-0.964069 7:-0.12546 8:-0.979585 9:-0.999821 10:0.211072 11:-0.0779712 12:-0.999825 13:0.0591734 14:-0.999825 15:-0.999993 16:0.173564 17:-0.999988 18:-0.999991 19:0.403496 20:-0.999991 21:-0.99998 22:0.187147 23:-0.999981 24:-1 25:-1 26:-1 27:-1 28:-1 29:-1 30:-0.836066 31:-0.790984 32:-1 33:-0.473707 34:-1 35:-1 36:-1 37:-1 38:-0.836066 39:-1 40:-1 41:-1 42:-1 43:-0.728091 44:-0.606558 45:-0.807378 46:-1 47:-0.868853 48:-1 49:-1 50:-1 51:-1 52:-1 53:-1 54:-1 55:-1 56:-0.414112 57:-0.672131 58:-0.868853 59:-0.803278 60:-1 61:-0.868853 62:-1 63:-0.565572 64:-0.540983 65:-0.90164 66:-1 67:-1 68:-0.25878 69:-0.868853 70:-0.344262 71:-0.53661 72:-1 73:-0.860656 74:-1 75:-0.852459 76:-1 77:-0.721312 78:-1 79:-0.508197 80:-1 81:-1 82:-1 83:-0.642459 84:-0.90164 85:-0.672131 86:-1 87:-1 88:-1 89:-1 90:-1 91:-1 92:-1 93:-1 94:-0.90164 95:-0.606558 96:-0.662763 97:-1 98:-1 99:-1 100:-1 101:-1 102:-1 103:-1 104:-1 105:-1 106:-1 107:-1 108:-0.770492 109:-0.704918 110:-0.844262 111:-1 112:-1 113:-1 114:-1 115:-1 116:-1 117:-1 118:-1 119:-1 120:-1 121:-1 122:-1 123:-1 124:-1 125:-1 126:-1 127:-1 128:-1 129:-0.653149 130:-0.852459 131:-1 132:-0.87541 133:-0.909836 134:-1 135:-1 136:-1 137:-0.661203 138:-0.784543 139:-0.785792 140:-0.550352 141:-0.467213 142:-0.462294 143:-1 144:-0.639344 145:-0.775085 146:-0.873537 147:-1 148:-1 149:-0.704918 150:-0.606558 151:-0.606557 152:-0.862095 153:-0.431693 154:-0.803279 155:-0.606558 156:-1 157:-1 158:-1 159:-0.66617 160:-0.557377 161:-0.846995 162:-0.836066 163:-1 164:-1 165:-1 166:-1 167:-0.962435 168:-0.959293 169:-0.957367 170:-0.952621 171:-0.963586 172:-0.969399 173:-1 174:-1 175:-0.954033 176:-0.980693 177:-0.969337 178:-0.989283 179:-1 180:-1 181:-0.95824 182:-0.985996 183:-0.98246 184:-0.979538 185:-0.974382 186:-0.985334 187:-0.957839 188:-0.957257 189:-0.958633 190:-1 191:-0.959429 192:-0.959672 193:-1 194:-0.960219 195:-0.958826 196:-0.959604 197:-0.99488 198:-0.97642 199:-0.969559 200:-0.985637 201:-0.991202 202:-0.994118 203:-0.99341 204:-1 205:-1 206:-1 207:-1 208:-0.995187 209:-0.996974 210:-0.997131 211:-1 212:-0.987097 213:-0.965812 214:-1 215:-0.954545 216:-0.962264 217:-0.984615 218:-0.953846 219:-0.90991 220:-0.962963 221:-1 222:-0.303134 223:-0.564544 
17.76271755805029 1:-0.930827 2:-0.997601 3:-0.999451 4:-0.076349 5:-0.225281 6:-0.997314 7:-0.105362 8:-0.995516 9:-0.999152 10:0.211014 11:-0.0778832 12:-0.999808 13:0.0595701 14:-0.999759 15:-0.999876 16:0.173575 17:-0.999995 18:-0.999974 19:0.403491 20:-0.999999 21:-0.999709 22:0.187175 23:-0.999987 24:-0.957143 25:-0.714286 26:-0.6 27:-0.946032 28:-0.904762 29:-1 30:-1 31:-1 32:-1 33:-1 34:-1 35:-1 36:-1 37:-1 38:-0.857143 39:-0.888722 40:-0.771429 41:-0.906441 42:-0.809478 43:-0.526101 44:-0.657144 45:-0.944048 46:-0.92381 47:-0.961905 48:-1 49:-1 50:-1 51:-1 52:-0.95873 53:-0.857143 54:-0.752381 55:-0.65 56:-0.957453 57:-0.761905 58:-0.771429 59:-0.914286 60:-0.8 61:-0.771429 62:-0.331264 63:-0.684523 64:-0.8 65:-0.971429 66:-0.961905 67:-0.926984 68:-0.784693 69:-0.92381 70:-1 71:-0.730793 72:-0.885715 73:-0.919048 74:-0.777073 75:-0.785714 76:-0.857143 77:-0.514286 78:-0.866995 79:-0.857143 80:-0.885714 81:-0.928571 82:-0.878389 83:-0.844214 84:-0.971429 85:-0.761905 86:-0.94532 87:-0.889177 88:-0.804081 89:-0.961905 90:-0.928571 91:-0.847619 92:-0.952381 93:-0.904762 94:-0.914286 95:-0.942857 96:-0.95102 97:-0.933894 98:-0.885715 99:-0.906235 100:-0.850794 101:-0.952381 102:-0.838096 103:-0.828572 104:-0.807143 105:-0.946779 106:-1 107:-1 108:-0.955556 109:-0.971429 110:-0.909524 111:-0.971429 112:-1 113:-0.942857 114:-1 115:-0.904762 116:-0.947619 117:-0.895238 118:-1 119:-0.946032 120:-1 121:-1 122:-0.898413 123:-0.695691 124:-0.725715 125:-0.809524 126:-0.980952 127:-1 128:-0.783333 129:-0.865664 130:-0.985714 131:-0.828571 132:-0.819048 133:-0.842857 134:-0.628571 135:-0.718427 136:-0.811111 137:-0.671958 138:-0.843538 139:-0.875555 140:-0.912925 141:-0.922619 142:-0.531427 143:-0.6 144:-0.790476 145:-0.673338 146:-0.706122 147:-0.722449 148:-0.777778 149:-0.957143 150:-0.92381 151:-0.885714 152:-0.959942 153:-0.95873 154:-0.942857 155:-0.695238 156:-0.866667 157:-0.928042 158:-0.977778 159:-0.935354 160:-1 161:-1 162:-1 163:-0.804762 164:-0.957823 165:-1 166:-1 167:-0.93071 168:-0.948683 169:-0.93742 170:-0.942005 171:-0.939008 172:-0.95447 173:-0.944082 174:-0.960437 175:-0.944866 176:-0.967217 177:-0.946185 178:-0.963647 179:-0.946073 180:-0.94377 181:-0.957843 182:-0.944823 183:-0.959088 184:-0.942279 185:-0.972352 186:-0.963306 187:-0.998096 188:-0.997258 189:-0.997116 190:-0.997188 191:-0.997216 192:-0.996969 193:-0.997028 194:-0.997139 195:-0.997216 196:-0.998214 197:-0.990783 198:-0.963558 199:-0.94825 200:-0.985637 201:-0.994135 202:-0.979412 203:-0.980231 204:-0.983471 205:-0.985948 206:-0.98995 207:-0.995289 208:-0.990373 209:-0.972769 210:-0.974175 211:-0.97351 212:-0.896774 213:-0.777778 214:-0.848485 215:-0.757576 216:-0.622642 217:-0.769231 218:-0.892308 219:-0.891892 220:-0.851852 221:-0.833333 222:-0.42645 223:-0.419398 
32 1:-0.895405 2:-0.989792 3:-0.977101 4:-0.0731093 5:-0.234138 6:-0.999047 7:-0.106603 8:-0.981219 9:-0.99467 10:0.213143 11:-0.0785258 12:-0.997119 13:0.0546175 14:-0.996617 15:-0.999015 16:0.174997 17:-0.995877 18:-0.999869 19:0.404025 20:-0.99897 21:-0.999966 22:0.187185 23:-0.999847 24:-1 25:-0.620253 26:-0.468354 27:-0.605486 28:-0.620253 29:-0.56962 30:-0.71519 31:-0.475476 32:-0.688555 33:-0.746013 34:-0.493671 35:-0.520639 36:-0.895731 37:-0.965748 38:-1 39:-1 40:-1 41:-0.968912 42:-0.915592 43:-0.895022 44:-0.848102 45:-0.88845 46:-0.898734 47:-0.949367 48:-0.952346 49:-1 50:-0.71519 51:-0.792429 52:-1 53:-1 54:-1 55:-1 56:-1 57:-1 58:-1 59:-1 60:-1 61:-1 62:-1 63:-1 64:-1 65:-1 66:-0.949367 67:-0.902954 68:-0.856916 69:-0.924051 70:-0.968354 71:-1 72:-1 73:-1 74:-1 75:-1 76:-1 77:-1 78:-1 79:-1 80:-0.981013 81:-1 82:-0.555503 83:-1 84:-0.734177 85:-1 86:-0.854649 87:-0.889528 88:-0.9566 89:-1 90:-1 91:-1 92:-1 93:-1 94:-1 95:-0.924051 96:-0.544303 97:-1 98:-0.316457 99:-0.937688 100:-0.454644 101:-0.620253 102:-0.426162 103:-1 104:-1 105:-1 106:-1 107:-1 108:-0.940928 109:-0.943038 110:-0.90981 111:-0.943038 112:-0.93038 113:-1 114:-1 115:-1 116:-1 117:-1 118:-1 119:-1 120:-1 121:-1 122:-1 123:-1 124:-1 125:-1 126:-1 127:-1 128:-0.958861 129:0.361426 130:-0.231013 131:-1 132:-1 133:-1 134:-1 135:-1 136:-1 137:-0.825598 138:-0.417722 139:-1 140:-1 141:-1 142:-1 143:-0.540852 144:-0.982595 145:-1 146:-1 147:-1 148:-1 149:-1 150:-0.772152 151:0.177219 152:-0.680549 153:-1 154:-1 155:-1 156:-1 157:-1 158:-0.867089 159:-0.484465 160:-1 161:-1 162:-1 163:-1 164:-1 165:-1 166:-1 167:-0.914661 168:-0.777422 169:-0.894094 170:-0.795478 171:-0.88218 172:-0.791953 173:-0.890387 174:-0.748354 175:-0.881321 176:-0.78989 177:-0.881688 178:-0.790249 179:-0.877044 180:-0.775986 181:-0.954525 182:-0.954606 183:-0.957939 184:-0.941525 185:-0.964712 186:-0.960499 187:-0.986274 188:-0.986345 189:-0.988099 190:-0.986111 191:-0.987858 192:-0.987505 193:-0.987768 194:-0.989365 195:-0.988764 196:-0.989278 197:-0.937532 198:-0.894962 199:-0.923896 200:-0.94614 201:-0.98827 202:-0.994118 203:-0.98682 204:-0.996694 205:-0.985948 206:-0.987437 207:-0.995289 208:-0.99278 209:-0.987897 210:-0.997131 211:-0.977925 212:-0.935484 213:-0.726496 214:-0.818182 215:-0.712121 216:-0.584906 217:-0.676923 218:-0.769231 219:-0.801802 220:-0.814815 221:-0.916667 222:-0.220759 223:-0.479987 
32 1:-0.932498 2:-0.998791 3:-0.999161 4:-0.0765471 5:-0.225054 6:-0.998795 7:-0.104356 8:-0.996143 9:-0.999337 10:0.210981 11:-0.0780072 12:-0.999838 13:0.0584997 14:-0.999817 15:-0.999977 16:0.173538 17:-0.999924 18:-0.999982 19:0.403422 20:-0.999854 21:-0.999978 22:0.187122 23:-0.999908 24:-0.926829 25:-0.902439 26:-0.658537 27:-0.668293 28:-0.951219 29:-1 30:-0.951219 31:-1 32:-0.956356 33:-0.843396 34:-0.951219 35:-0.94316 36:-1 37:-1 38:-0.902439 39:-0.772015 40:-0.765854 41:-0.712477 42:-0.544607 43:-0.271813 44:-0.882927 45:-0.656098 46:-0.453659 47:-0.843902 48:-0.816356 49:-0.889987 50:-0.853659 51:-1 52:-0.830894 53:-0.756098 54:-0.682927 55:-0.701219 56:-0.869247 57:-0.756098 58:-0.72683 59:-0.765853 60:-0.795122 61:-0.687805 62:-0.794487 63:-1 64:-0.863414 65:-1 66:-0.921951 67:-0.850407 68:-1 69:-0.960976 70:-0.902439 71:-0.793171 72:-0.765854 73:-0.87561 74:-0.847757 75:-0.912195 76:-0.951219 77:-0.917073 78:-0.863751 79:-1 80:-0.970732 81:-0.926829 82:-0.875423 83:-0.946805 84:-0.912195 85:-0.951219 86:-0.887973 87:-0.943237 88:-0.933101 89:-1 90:-1 91:-1 92:-0.902439 93:-1 94:-0.941463 95:-0.941464 96:-0.899651 97:-0.932281 98:-0.941464 99:-0.951974 100:-0.923577 101:-1 102:-1 103:-1 104:-1 105:-1 106:-1 107:-1 108:-0.977236 109:-0.912195 110:-1 111:-0.970732 112:-0.964228 113:-1 114:-1 115:-1 116:-1 117:-1 118:-1 119:-1 120:-1 121:-1 122:-0.960976 123:-0.858304 124:-0.781464 125:-0.570732 126:-0.902439 127:-0.846504 128:-0.968293 129:-1 130:-0.985366 131:-0.882927 132:-0.925854 133:-0.812195 134:-0.590243 135:-0.65387 136:-0.806504 137:-0.932791 138:-0.935889 139:-0.93626 140:-1 141:-0.960366 142:-1 143:-0.850998 144:-0.62439 145:-0.598444 146:-0.586063 147:-0.573519 148:-0.681302 149:-1 150:-1 151:-0.970732 152:-0.794825 153:-0.746341 154:-0.843902 155:-0.882927 156:-0.692683 157:-0.742006 158:-1 159:-1 160:-0.912195 161:-0.954472 162:-0.707317 163:-0.9 164:-0.956794 165:-0.934959 166:-0.895471 167:-0.947382 168:-0.914824 169:-0.953312 170:-0.931596 171:-0.9552 172:-0.926706 173:-0.954559 174:-0.946018 175:-0.945317 176:-0.933748 177:-0.952985 178:-0.958832 179:-0.964019 180:-0.952171 181:-0.960197 182:-0.955172 183:-0.965285 184:-0.940069 185:-0.961886 186:-0.94168 187:-0.999254 188:-0.998483 189:-0.9984 190:-0.998421 191:-0.998396 192:-0.998369 193:-0.998441 194:-0.998472 195:-0.998442 196:-0.999353 197:-0.976446 198:-0.972133 199:-0.966514 200:-0.967684 201:-0.982405 202:-0.985294 203:-0.983526 204:-0.990083 205:-0.978923 206:-0.982412 207:-0.981154 208:-0.983153 209:-0.97882 210:-0.974175 211:-0.93819 212:-0.806452 213:-0.726496 214:-0.878788 215:-0.893939 216:-0.90566 217:-0.938462 218:-0.938462 219:-0.927928 220:-0.925926 221:-0.833333 222:-0.655291 223:-0.694846 
32 1:-0.924812 2:-0.998232 3:-0.999259 4:-0.0763869 5:-0.225135 6:-0.99814 7:-0.10465 8:-0.997235 9:-0.999182 10:0.210935 11:-0.0780065 12:-0.999802 13:0.0590764 14:-0.999743 15:-0.999851 16:0.173576 17:-0.999995 18:-0.999979 19:0.403487 20:-0.999999 21:-0.999526 22:0.187187 23:-0.999985 24:-0.947368 25:-0.649123 26:-0.631578 27:-0.900585 28:-0.824561 29:-0.894737 30:-1 31:-0.944079 32:-1 33:-1 34:-1 35:-1 36:-1 37:-1 38:-0.824561 39:-0.743767 40:-0.736843 41:-0.741481 42:-0.766025 43:-0.854504 44:-0.894737 45:-0.845395 46:-1 47:-1 48:-0.966976 49:-1 50:-1 51:-1 52:-0.847953 53:-0.868421 54:-0.885965 55:-0.731359 56:-0.882437 57:-0.868421 58:-0.824562 59:-0.815789 60:-0.754386 61:-0.929825 62:-0.56884 63:-0.5932 64:-0.815789 65:-1 66:-0.894737 67:-0.932749 68:-0.867794 69:-0.929825 70:-0.95614 71:-0.938012 72:-0.947369 73:-0.925439 74:-0.657788 75:-0.763158 76:-0.912281 77:-0.627193 78:-0.632487 79:-0.868421 80:-0.921053 81:-0.802631 82:-0.831984 83:-0.952171 84:-0.921053 85:-0.912281 86:-0.899274 87:-0.897927 88:-0.879699 89:-0.964912 90:-0.93421 91:-0.929825 92:-0.868421 93:-0.912281 94:-0.947368 95:-0.894737 96:-1 97:-0.817338 98:-0.894737 99:-1 100:-0.725146 101:-0.868421 102:-0.701755 103:-1 104:-0.940789 105:-0.95098 106:-1 107:-0.95614 108:-0.918128 109:-0.947368 110:-1 111:-0.973684 112:-1 113:-0.947369 114:-0.973684 115:-0.912281 116:-0.951754 117:-1 118:-0.868421 119:-1 120:-1 121:-1 122:-0.988304 123:-0.719716 124:-0.803508 125:-0.929825 126:-1 127:-0.965497 128:-0.942982 129:-1 130:-1 131:-0.789474 132:-0.7 133:-0.710526 134:-0.552631 135:-0.870328 136:-0.80117 137:-0.667642 138:-0.827068 139:-1 140:-0.919799 141:-0.82182 142:-0.640351 143:-0.732058 144:-0.710526 145:-0.638952 146:-0.796992 147:-0.701753 148:-0.877193 149:-0.881579 150:-0.929825 151:-0.921053 152:-0.889313 153:-0.695906 154:-0.877193 155:-0.754386 156:-0.846491 157:-0.834308 158:-0.938596 159:-0.970229 160:-0.960526 161:-1 162:-0.95614 163:-0.820175 164:-0.844611 165:-0.883041 166:-0.962406 167:-0.935019 168:-0.946817 169:-0.933114 170:-0.953977 171:-0.939411 172:-0.957785 173:-0.948261 174:-0.965356 175:-0.938197 176:-0.960743 177:-0.942297 178:-0.961054 179:-0.952779 180:-0.949209 181:-0.946624 182:-0.954012 183:-0.965543 184:-0.948937 185:-0.962748 186:-0.964748 187:-0.998809 188:-0.997929 189:-0.997867 190:-0.997888 191:-0.997822 192:-0.997775 193:-0.997761 194:-0.997791 195:-0.997839 196:-0.998799 197:-0.980543 198:-0.959271 199:-0.945205 200:-0.978456 201:-0.98827 202:-0.988235 203:-0.976936 204:-0.993388 205:-0.974239 206:-0.984925 207:-0.976443 208:-0.968712 209:-0.966717 210:-0.95122 211:-0.92936 212:-0.741935 213:-0.846154 214:-0.818182 215:-0.833333 216:-0.867925 217:-0.969231 218:-0.969231 219:-1 220:-1 221:-1 222:-0.5227 223:-0.544512 
32 1:-0.981955 2:-0.936869 3:-0.964702 4:-0.0370529 5:-0.263093 6:-0.951321 7:-0.166782 8:-0.883658 9:-0.999512 10:0.211043 11:-0.0779986 12:-0.99979 13:0.0591288 14:-0.999785 15:-0.99964 16:0.173727 17:-0.999819 18:-0.999954 19:0.403545 20:-0.999953 21:-0.999917 22:0.187117 23:-0.999959 24:-1 25:-1 26:-1 27:-1 28:-1 29:-0.859649 30:-0.824561 31:0.118419 32:-0.686071 33:-0.155162 34:-0.473684 35:-0.386728 36:-0.421945 37:-0.810114 38:-0.824561 39:-0.590028 40:-0.578948 41:-0.482962 42:-0.298077 43:0.163964 44:-0.368422 45:-0.793859 46:-0.719298 47:-1 48:-1 49:-1 50:-1 51:-1 52:-0.543859 53:-1 54:-1 55:-1 56:-1 57:-1 58:-0.859649 59:-1 60:-1 61:-1 62:-1 63:-1 64:-1 65:-1 66:-1 67:-0.730994 68:-1 69:-1 70:-0.824561 71:-1 72:-1 73:-1 74:-1 75:-1 76:-1 77:-1 78:-1 79:-1 80:-1 81:-1 82:-1 83:-1 84:-1 85:-1 86:-1 87:-1 88:-0.759397 89:-1 90:-1 91:-1 92:-1 93:-1 94:-1 95:-1 96:-1 97:-1 98:-0.789474 99:-1 100:-0.725146 101:-1 102:-1 103:-1 104:-1 105:-1 106:-1 107:-1 108:-1 109:-1 110:-1 111:-1 112:-1 113:-1 114:-1 115:-1 116:-1 117:-0.807017 118:-1 119:-1 120:-0.894736 121:-1 122:-0.859649 123:-0.490392 124:-0.438596 125:-0.298246 126:-0.228072 127:-0.0339172 128:-0.429824 129:-0.876269 130:-1 131:-1 132:-1 133:-1 134:-1 135:-0.896262 136:-1 137:-0.879142 138:-0.654135 139:-0.77076 140:-1 141:-1 142:-1 143:-0.866029 144:-1 145:-0.87965 146:-1 147:-1 148:-0.836257 149:-1 150:-0.859649 151:-1 152:-1 153:-0.847953 154:-1 155:-0.859649 156:-1 157:-1 158:-1 159:-1 160:-0.842105 161:-1 162:-0.824561 163:-1 164:-1 165:-1 166:-1 167:-0.955191 168:-0.927489 169:-0.937596 170:-0.936784 171:-1 172:-1 173:-1 174:-1 175:-1 176:-1 177:-0.858727 178:-0.877264 179:-1 180:-1 181:-1 182:-1 183:-1 184:-1 185:-0.787624 186:-0.811362 187:-0.927109 188:-0.936012 189:-1 190:-1 191:-0.918009 192:-0.935977 193:-1 194:-1 195:-1 196:-0.937169 197:-0.997952 198:-1 199:-0.993912 200:-0.985637 201:-1 202:-0.997059 203:-1 204:-0.983471 205:-0.995316 206:-0.994975 207:-0.985866 208:-0.995187 209:-0.975794 210:-0.994261 211:-0.99117 212:-0.948387 213:-0.982906 214:-0.954545 215:-1 216:-0.943396 217:-0.969231 218:-0.953846 219:-1 220:-1 221:-0.916667 222:-0.771324 223:-0.715084 
30.75191493354367 1:-0.880033 2:-0.989735 3:-0.977863 4:-0.0727751 5:-0.234818 6:-0.998877 7:-0.107093 8:-0.978002 9:-0.994067 10:0.211273 11:-0.0818357 12:-0.997643 13:0.0600544 14:-0.997127 15:-0.998785 16:0.174847 17:-0.997279 18:-0.999773 19:0.404174 20:-0.99899 21:-0.99985 22:0.187283 23:-0.999627 24:-1 25:-0.751381 26:-0.497237 27:-0.467773 28:-0.723757 29:-0.756906 30:-0.61326 31:-0.506907 32:-0.653984 33:-0.711775 34:-0.696133 35:-0.645929 36:-0.93932 37:-1 38:-1 39:-1 40:-0.867404 41:-0.891451 42:-0.852635 43:-0.816724 44:-0.867404 45:-0.837707 46:-0.64641 47:-0.823205 48:-0.916802 49:-0.8754 50:-0.751381 51:-0.967055 52:-1 53:-1 54:-1 55:-0.96616 56:-0.950637 57:-1 58:-1 59:-0.983425 60:-0.961326 61:-0.955801 62:-0.961206 63:-0.963398 64:-0.883978 65:-0.867403 66:-0.955801 67:-0.872928 68:-0.833465 69:-0.955801 70:-0.834254 71:-0.960958 72:-1 73:-1 74:-1 75:-1 76:-1 77:-1 78:-1 79:-1 80:-1 81:-1 82:-0.682534 83:-0.969876 84:-0.834254 85:-1 86:-0.96828 87:-0.839276 88:-0.848461 89:-0.955801 90:-1 91:-1 92:-1 93:-1 94:-1 95:-0.966851 96:-0.659036 97:-0.846604 98:-0.767956 99:-0.72803 100:-0.480664 101:-0.668508 102:-0.655618 103:-0.900553 104:-1 105:-1 106:-1 107:-1 108:-0.974217 109:-0.933702 110:-0.921271 111:-0.966851 112:-0.959484 113:-0.900553 114:-1 115:-0.972376 116:-0.90884 117:-1 118:-1 119:-1 120:-1 121:-1 122:-1 123:-1 124:-1 125:-1 126:-1 127:-1 128:-1 129:0.168946 130:-0.519337 131:-1 132:-1 133:-1 134:-1 135:-1 136:-0.827809 137:0.236953 138:-0.582479 139:-1 140:-1 141:-1 142:-1 143:-0.767956 144:-0.741713 145:-0.9621 146:-1 147:-1 148:-1 149:-1 150:-0.911602 151:-0.154695 152:-0.302857 153:-1 154:-1 155:-1 156:-1 157:-1 158:-0.858195 159:-0.64373 160:-1 161:-1 162:-1 163:-1 164:-1 165:-1 166:-1 167:-0.916741 168:-0.880158 169:-0.890943 170:-0.79873 171:-0.880121 172:-0.804421 173:-0.887938 174:-0.78491 175:-0.878774 176:-0.823095 177:-0.861372 178:-0.819249 179:-0.852184 180:-0.814307 181:-0.957488 182:-0.9146 183:-0.944227 184:-0.944421 185:-0.982887 186:-0.963894 187:-0.985067 188:-0.986617 189:-0.988158 190:-0.986832 191:-0.987605 192:-0.987335 193:-0.988224 194:-0.98941 195:-0.988791 196:-0.98929 197:-0.924219 198:-0.89925 199:-0.933029 200:-0.964093 201:-0.985337 202:-0.985294 203:-0.970346 204:-0.993388 205:-0.98829 206:-0.997487 207:-0.995289 208:-0.995187 209:-0.990923 210:-0.988522 211:-0.969095 212:-0.858065 213:-0.82906 214:-0.712121 215:-0.818182 216:-0.54717 217:-0.707692 218:-0.676923 219:-0.567568 220:-0.333333 221:-0.666667 222:-0.158846 223:-0.404264 
32 1:-0.876023 2:-0.989764 3:-0.978056 4:-0.0727213 5:-0.233812 6:-0.998845 7:-0.106836 8:-0.980248 9:-0.994081 10:0.208955 11:-0.0827873 12:-0.997628 13:0.0609617 14:-0.997121 15:-0.998775 16:0.174845 17:-0.997316 18:-0.99979 19:0.404115 20:-0.999092 21:-0.999845 22:0.18728 23:-0.999669 24:-0.94385 25:-0.705882 26:-0.550801 27:-0.666667 28:-0.679144 29:-0.743315 30:-0.545455 31:-0.625 32:-0.665086 33:-0.613724 34:-0.705882 35:-0.657289 36:-1 37:-1 38:-1 39:-0.937518 40:-0.935829 41:-0.9212 42:-0.821704 43:-0.822604 44:-0.807487 45:-0.717246 46:-0.743315 47:-0.893048 48:-0.919471 49:-0.819096 50:-0.839572 51:-0.904337 52:-0.976827 53:-1 54:-0.965241 55:-0.967246 56:-1 57:-1 58:-0.935829 59:-0.967914 60:-0.981283 61:-0.97861 62:-0.962451 63:-0.964572 64:-0.8877 65:-0.919786 66:-0.935829 67:-0.836007 68:-1 69:-0.97861 70:-0.812834 71:-1 72:-1 73:-1 74:-1 75:-1 76:-1 77:-1 78:-1 79:-1 80:-1 81:-0.71925 82:-0.931716 83:-0.970842 84:-0.871657 85:-1 86:-0.877189 87:-0.90666 88:-0.926661 89:-1 90:-1 91:-1 92:-1 93:-1 94:-0.983957 95:-0.871658 96:-0.752482 97:-0.925763 98:-0.518717 99:-0.921027 100:-0.497327 101:-0.545455 102:-0.48485 103:-1 104:-1 105:-1 106:-1 107:-1 108:-0.937611 109:-0.983957 110:-0.77139 111:-0.983957 112:-0.901961 113:-1 114:-1 115:-1 116:-1 117:-1 118:-1 119:-1 120:-1 121:-1 122:-1 123:-1 124:-1 125:-1 126:-1 127:-1 128:-1 129:-0.000564211 130:-0.510694 131:-1 132:-1 133:-1 134:-1 135:-1 136:-0.833333 137:0.215687 138:-0.420168 139:-1 140:-1 141:-1 142:-1 143:-0.714147 144:-0.852941 145:-0.926632 146:-1 147:-1 148:-1 149:-1 150:-0.893048 151:-0.181815 152:-0.302732 153:-1 154:-1 155:-1 156:-1 157:-1 158:-0.775401 159:-0.691461 160:-1 161:-1 162:-1 163:-1 164:-1 165:-1 166:-1 167:-0.863421 168:-0.801817 169:-0.886522 170:-0.810358 171:-0.873891 172:-0.817616 173:-0.895546 174:-0.798378 175:-0.868964 176:-0.829533 177:-0.870694 178:-0.817631 179:-0.870944 180:-0.814437 181:-0.942923 182:-0.919009 183:-0.961454 184:-0.939294 185:-0.958226 186:-0.963574 187:-0.987508 188:-0.986045 189:-0.988212 190:-0.986406 191:-0.988125 192:-0.987916 193:-0.987841 194:-0.989405 195:-0.988909 196:-0.989397 197:-0.931388 198:-0.888532 199:-0.936073 200:-0.928187 201:-0.985337 202:-0.985294 203:-0.99341 204:-0.996694 205:-0.992974 206:-0.984925 207:-1 208:-0.98556 209:-0.984871 210:-0.991392 211:-0.977925 212:-0.922581 213:-0.777778 214:-0.727273 215:-0.742424 216:-0.679245 217:-0.615385 218:-0.661538 219:-0.513514 220:-0.185185 221:-0.666667 222:-0.157044 223:-0.394772 
30.95130397260546 1:-0.930827 2:-0.999005 3:-0.998831 4:-0.0766211 5:-0.225009 6:-0.999259 7:-0.104187 8:-0.996734 9:-0.999407 10:0.211014 11:-0.0779733 12:-0.99983 13:0.058958 14:-0.999813 15:-0.999973 16:0.173552 17:-0.999913 18:-0.999985 19:0.403475 20:-0.999855 21:-0.999956 22:0.187129 23:-0.999943 24:-1 25:-1 26:-0.6 27:-0.622223 28:-0.904762 29:-0.961905 30:-0.952381 31:-0.817858 32:-0.701767 33:-0.808906 34:-0.809524 35:-0.944514 36:-1 37:-1 38:-0.761905 39:-0.610526 40:-0.485716 41:-0.719323 42:-0.428435 43:-0.447117 44:-0.600001 45:-0.552382 46:-0.542858 47:-0.733334 48:-0.856583 49:-0.83891 50:-0.809524 51:-1 52:-0.87619 53:-0.809524 54:-0.690476 55:-0.941667 56:-0.914907 57:-0.904762 58:-0.847619 59:-0.828571 60:-0.866667 61:-0.92381 62:-0.933126 63:-0.936905 64:-0.933333 65:-1 66:-0.885714 67:-0.926984 68:-0.856462 69:-0.92381 70:-1 71:-0.798095 72:-0.885715 73:-0.878571 74:-0.702764 75:-0.871429 76:-0.952381 77:-1 78:-1 79:-1 80:-0.828571 81:-0.857142 82:-0.817583 83:-0.844214 84:-0.914286 85:-0.952381 86:-1 87:-1 88:-1 89:-0.961905 90:-1 91:-0.847619 92:-1 93:-1 94:-0.942857 95:-0.885715 96:-1 97:-0.933894 98:-1 99:-0.953118 100:-1 101:-1 102:-1 103:-1 104:-1 105:-1 106:-1 107:-1 108:-0.977778 109:-0.971429 110:-1 111:-1 112:-1 113:-0.942857 114:-1 115:-1 116:-1 117:-1 118:-1 119:-1 120:-1 121:-1 122:-0.936508 123:-0.75102 124:-0.573333 125:-0.542857 126:-0.885714 127:-0.925079 128:-0.938095 129:-0.932832 130:-1 131:-1 132:-0.96381 133:-0.790476 134:-0.742857 135:-0.746584 136:-0.811111 137:-0.835979 138:-1 139:-0.813333 140:-1 141:-0.96131 142:-0.687619 143:-0.854546 144:-0.764286 145:-0.706004 146:-0.706122 147:-0.583673 148:-0.644445 149:-1 150:-1 151:-0.942857 152:-0.679536 153:-0.793651 154:-0.904762 155:-0.809524 156:-0.7 157:-0.820106 158:-1 159:-1 160:-1 161:-0.911111 162:-0.857143 163:-1 164:-0.957823 165:-0.84127 166:-0.877551 167:-0.963748 168:-0.918381 169:-0.963395 170:-0.939 171:-0.963379 172:-0.943559 173:-0.944539 174:-0.925095 175:-0.936263 176:-0.962957 177:-0.951637 178:-0.957563 179:-0.955685 180:-0.948269 181:-0.95733 182:-0.944831 183:-0.958547 184:-0.954335 185:-0.963089 186:-0.953785 187:-0.999605 188:-0.998733 189:-0.998756 190:-0.998617 191:-0.998584 192:-0.998684 193:-0.99872 194:-0.998645 195:-0.998737 196:-0.999581 197:-0.969278 198:-0.950697 199:-0.94825 200:-0.960503 201:-0.967742 202:-0.985294 203:-0.983526 204:-0.966942 205:-0.981265 206:-0.974874 207:-0.98351 208:-0.963899 209:-0.963691 210:-0.977044 211:-0.97351 212:-0.935484 213:-0.811966 214:-0.939394 215:-0.984848 216:-0.90566 217:-0.969231 218:-0.969231 219:-1 220:-1 221:-1 222:-0.704011 223:-0.784351 
0.4301982967498748 1:-0.99198 2:-0.844301 3:-0.941553 4:0.00870873 5:-0.27212 6:-0.866937 7:-0.203572 8:-0.899113 9:-0.999813 10:0.211056 11:-0.078023 12:-0.999964 13:0.0589375 14:-0.999951 15:-0.99994 16:0.173535 17:-0.99998 18:-0.999999 19:0.403483 20:-1 21:-0.999981 22:0.187127 23:-0.999994 24:-1 25:-1 26:-1 27:-1 28:-1 29:-1 30:-0.62963 31:-1 32:-1 33:-1 34:-1 35:-1 36:-1 37:-1 38:-0.62963 39:-1 40:-1 41:-1 42:-1 43:-0.385686 44:-0.111113 45:-1 46:-1 47:-1 48:-1 49:-1 50:-1 51:-1 52:-0.358024 53:-1 54:-1 55:-1 56:-1 57:-1 58:-0.703704 59:-1 60:-1 61:-1 62:-1 63:-1 64:-1 65:-0.777778 66:-0.407407 67:-1 68:-1 69:-1 70:-1 71:-0.476542 72:-0.555557 73:-1 74:-1 75:-1 76:-1 77:-1 78:-1 79:-0.62963 80:-0.555555 81:-1 82:-1 83:-1 84:-1 85:-0.62963 86:-0.574713 87:-1 88:-1 89:-1 90:-1 91:-1 92:-1 93:-1 94:-0.555555 95:-1 96:-1 97:-1 98:-1 99:-0.270716 100:-1 101:-1 102:-1 103:-1 104:-1 105:-1 106:-1 107:-0.259259 108:-1 109:-1 110:-1 111:-1 112:-1 113:-0.555557 114:-0.555555 115:-1 116:-1 117:-1 118:-1 119:-1 120:-1 121:-1 122:-1 123:-1 124:-1 125:-1 126:-0.407408 127:-1 128:-1 129:-1 130:-1 131:0.111111 132:-1 133:-1 134:-1 135:0.533011 136:-1 137:-1 138:-1 139:-1 140:0.015872 141:-1 142:-1 143:-1 144:-0.592592 145:-1 146:-1 147:-1 148:-0.654322 149:-0.666667 150:-1 151:-1 152:-1 153:-0.679012 154:-1 155:-1 156:-1 157:-0.720165 158:-1 159:-1 160:-1 161:-1 162:-1 163:-1 164:-1 165:-1 166:-0.68254 167:-0.953397 168:-0.962886 169:-1 170:-1 171:-1 172:-1 173:-1 174:-1 175:-0.900104 176:-0.938069 177:-1 178:-1 179:-1 180:-1 181:-1 182:-1 183:-1 184:-1 185:-0.961429 186:-0.953079 187:-0.841231 188:-1 189:-1 190:-1 191:-0.843826 192:-1 193:-1 194:-1 195:-1 196:-0.843096 197:-1 198:-0.997856 199:-1 200:-0.996409 201:-1 202:-1 203:-0.99341 204:-1 205:-0.997658 206:-1 207:-0.997644 208:-1 209:-0.996974 210:-0.991392 211:-0.99117 212:-0.96129 213:-0.965812 214:-0.984848 215:-0.984848 216:-1 217:-0.969231 218:-0.984615 219:-0.981982 220:-0.962963 221:-0.916667 222:-0.693146 223:-0.600142 
7.51089019810914 1:-0.991312 2:-0.834602 3:-0.936722 4:0.0148946 5:-0.272343 6:-0.858794 7:-0.20306 8:-0.907621 9:-0.999829 10:0.211043 11:-0.077994 12:-0.999952 13:0.05886 14:-0.999937 15:-0.99995 16:0.173542 17:-0.999986 18:-1 19:0.403483 20:-0.999999 21:-0.999949 22:0.187117 23:-0.999987 24:-1 25:-1 26:-1 27:-1 28:-1 29:-1 30:-0.655172 31:-1 32:-1 33:-1 34:-1 35:-1 36:-1 37:-1 38:-0.310345 39:-1 40:-1 41:-1 42:-1 43:-0.428051 44:-0.586207 45:-1 46:-1 47:-1 48:-1 49:-1 50:-1 51:-1 52:-0.402298 53:-1 54:-1 55:-1 56:-1 57:-0.655172 58:-0.724138 59:-1 60:-1 61:-1 62:-1 63:-1 64:-1 65:-0.586207 66:-0.448276 67:-1 68:-1 69:-1 70:-1 71:-1 72:-0.172416 73:-1 74:-1 75:-1 76:-1 77:-1 78:-0.51843 79:-0.655172 80:-0.586207 81:-1 82:-1 83:-1 84:-1 85:-1 86:-0.604042 87:-1 88:-1 89:-1 90:-1 91:-1 92:-1 93:-0.310345 94:-0.586207 95:-1 96:-1 97:-1 98:-1 99:-1 100:0.0804559 101:-1 102:-1 103:-1 104:-1 105:-1 106:-1 107:-0.655172 108:-1 109:-1 110:-1 111:-1 112:-1 113:-1 114:-0.586207 115:-1 116:-1 117:-1 118:-1 119:-1 120:-1 121:-1 122:-0.908046 123:-1 124:-1 125:-1 126:-0.862069 127:-1 128:-1 129:-1 130:-1 131:0.448275 132:-1 133:-1 134:-1 135:0.631185 136:-1 137:-1 138:-1 139:-1 140:-0.684729 141:-1 142:-1 143:-1 144:-0.620689 145:-1 146:-1 147:-1 148:-0.356323 149:-0.689654 150:-1 151:-1 152:-0.709924 153:-1 154:-1 155:-1 156:-1 157:0.0421449 158:-1 159:-1 160:-1 161:-1 162:-1 163:-1 164:-1 165:-1 166:-1 167:-0.959663 168:-0.933163 169:-1 170:-1 171:-1 172:-1 173:-1 174:-1 175:-0.900476 176:-0.948517 177:-1 178:-1 179:-1 180:-1 181:-1 182:-1 183:-1 184:-1 185:-0.958902 186:-0.944436 187:-0.831587 188:-1 189:-1 190:-1 191:-0.83334 192:-1 193:-1 194:-1 195:-1 196:-0.833986 197:-0.998976 198:-0.997856 199:-1 200:-1 201:-1 202:-1 203:-0.996705 204:-0.993388 205:-1 206:-1 207:-0.995289 208:-0.997593 209:-0.996974 210:-0.994261 211:-0.99117 212:-0.987097 213:-0.948718 214:-1 215:-0.984848 216:-0.962264 217:-0.984615 218:-1 219:-0.981982 220:-0.925926 221:-0.75 222:-0.715584 223:-0.611726 
11.32216301216995 1:-0.99198 2:-0.822718 3:-0.932587 4:0.0209875 5:-0.275866 6:-0.849414 7:-0.210458 8:-0.901963 9:-0.999864 10:0.211036 11:-0.0779961 12:-0.999957 13:0.0589211 14:-0.999943 15:-0.999964 16:0.173537 17:-0.999974 18:-0.999999 19:0.403481 20:-0.999998 21:-0.999983 22:0.187124 23:-0.999987 24:-0.888889 25:-1 26:-1 27:-1 28:-1 29:-1 30:-0.259259 31:-1 32:-1 33:-1 34:-1 35:-1 36:-1 37:-1 38:-1 39:-1 40:-1 41:-1 42:-1 43:-1 44:-0.111113 45:-1 46:-1 47:-1 48:-1 49:-1 50:-1 51:-0.77915 52:-0.358024 53:-1 54:-1 55:-1 56:-1 57:-1 58:-0.703704 59:-1 60:-1 61:-1 62:-1 63:-1 64:-1 65:-0.777778 66:-0.703704 67:-1 68:-1 69:-1 70:-1 71:-1 72:-0.111113 73:-1 74:-1 75:-1 76:-1 77:-1 78:-1 79:-0.259259 80:-0.555555 81:-1 82:-1 83:-1 84:-1 85:-1 86:-0.574713 87:-1 88:-1 89:-1 90:-1 91:-1 92:-1 93:-0.62963 94:-0.777778 95:-1 96:-1 97:-1 98:-1 99:-1 100:0.16049 101:-1 102:-1 103:-1 104:-1 105:-1 106:-1 107:-0.62963 108:-0.654321 109:-1 110:-1 111:-1 112:-1 113:-1 114:-0.555555 115:-1 116:-1 117:-1 118:-1 119:-1 120:-1 121:-1 122:-0.802469 123:-0.784832 124:-1 125:-1 126:-0.703704 127:-1 128:-1 129:-1 130:-1 131:0.111111 132:-0.718519 133:-1 134:-0.555555 135:-0.342995 136:-0.580247 137:-1 138:-1 139:-1 140:-1 141:-1 142:-1 143:-0.717172 144:-0.796296 145:-0.74593 146:-1 147:-1 148:0.0370346 149:-1 150:-1 151:-1 152:-1 153:-1 154:-1 155:-1 156:-0.740741 157:-0.720165 158:-1 159:-1 160:-1 161:-1 162:-1 163:-1 164:-1 165:-1 166:-1 167:-0.943222 168:-0.966076 169:-1 170:-1 171:-1 172:-1 173:-1 174:-1 175:-0.923228 176:-0.930937 177:-1 178:-1 179:-1 180:-1 181:-1 182:-1 183:-1 184:-1 185:-0.961171 186:-0.945358 187:-0.819927 188:-1 189:-1 190:-1 191:-0.822037 192:-1 193:-1 194:-1 195:-1 196:-0.82379 197:-1 198:-0.997856 199:-1 200:-1 201:-1 202:-1 203:-0.996705 204:-1 205:-0.997658 206:-0.997487 207:-0.995289 208:-1 209:-0.990923 210:-0.994261 211:-0.995585 212:-0.974194 213:-1 214:-0.969697 215:-0.984848 216:-1 217:-0.969231 218:-0.953846 219:-0.981982 220:-1 221:-0.833333 222:-0.752595 223:-0.628383 
2.505977717851669 1:-0.974937 2:-0.961734 3:-0.923962 4:-0.0742117 5:-0.228918 6:-0.999843 7:-0.104257 8:-0.996074 9:-0.999713 10:0.211084 11:-0.0781516 12:-0.999688 13:0.0587296 14:-0.999676 15:-0.999919 16:0.173546 17:-0.999996 18:-0.999998 19:0.403483 20:-1 21:-0.999852 22:0.18711 23:-0.999991 24:-0.961539 25:-1 26:-1 27:-1 28:-1 29:-1 30:-0.615385 31:-1 32:-0.655886 33:-1 34:-0.358974 35:-1 36:-1 37:-1 38:-0.615385 39:-0.700405 40:-1 41:-0.622165 42:-1 43:0.0632377 44:-0.846154 45:-0.698719 46:-0.589744 47:-1 48:-0.903469 49:-1 50:-1 51:-1 52:-1 53:-0.74359 54:-1 55:-0.685897 56:-1 57:-0.74359 58:-0.794872 59:-1 60:-0.910256 61:-1 62:-0.639912 63:-1 64:-1 65:-0.923077 66:-0.897436 67:-0.803419 68:-1 69:-0.794872 70:-1 71:-0.818803 72:-0.846154 73:-1 74:-1 75:-1 76:-1 77:-1 78:-0.462866 79:-0.871795 80:-0.692307 81:-0.807692 82:-1 83:-1 84:-1 85:-0.871795 86:-1 87:-1 88:-0.824176 89:-1 90:-0.807692 91:-1 92:-0.615385 93:-0.487179 94:-0.923077 95:-0.846154 96:-1 97:-1 98:-1 99:-0.873778 100:-0.799146 101:-1 102:-0.854701 103:-1 104:-1 105:-1 106:-1 107:-0.871795 108:-1 109:-1 110:-1 111:-1 112:-1 113:-0.846154 114:-1 115:-1 116:-1 117:-1 118:-0.871795 119:-1 120:-1 121:-0.923077 122:-0.897436 123:-0.925519 124:-0.835898 125:-1 126:-1 127:-1 128:-1 129:-1 130:-1 131:-0.923077 132:-0.805128 133:-0.858974 134:-0.615384 135:-0.620958 136:-0.854701 137:-0.735043 138:-0.915751 139:-0.832479 140:-0.765568 141:-0.895834 142:-0.894872 143:-0.706294 144:-0.858974 145:-0.824105 146:-0.703297 147:-0.750916 148:-0.760684 149:-0.653846 150:-0.794872 151:-0.846154 152:-0.892151 153:-0.777778 154:-0.897436 155:-0.794872 156:-0.820513 157:-0.612535 158:-0.940171 159:-0.912976 160:-1 161:-0.760684 162:-0.871795 163:-0.73718 164:-0.772894 165:-0.91453 166:-1 167:-0.949812 168:-0.960944 169:-0.952807 170:-0.969655 171:-0.975273 172:-0.968878 173:-0.948313 174:-0.955349 175:-1 176:-1 177:-0.953418 178:-0.95045 179:-0.947921 180:-0.954986 181:-0.938592 182:-0.955422 183:-0.988745 184:-0.966156 185:-0.964729 186:-0.961827 187:-0.960609 188:-0.959867 189:-0.960735 190:-0.960344 191:-1 192:-0.961136 193:-0.961186 194:-0.96131 195:-0.960173 196:-0.960959 197:-0.998976 198:-0.995713 199:-0.987823 200:-0.996409 201:-0.994135 202:-0.991176 203:-0.99341 204:-0.996694 205:-1 206:-1 207:-0.992933 208:-0.995187 209:-1 210:-0.994261 211:-0.995585 212:-0.96129 213:-0.82906 214:-0.893939 215:-0.909091 216:-0.90566 217:-0.846154 218:-0.907692 219:-0.963964 220:-0.962963 221:-0.833333 222:-0.46798 223:-0.274513 
1.696632608534651 1:-0.976274 2:-0.961624 3:-0.924282 4:-0.0773662 5:-0.232744 6:-0.999995 7:-0.104027 8:-0.99524 9:-0.999749 10:0.211067 11:-0.0781422 12:-0.999725 13:0.0583761 14:-0.999712 15:-0.999959 16:0.173585 17:-0.999966 18:-0.999991 19:0.403499 20:-0.999987 21:-0.999988 22:0.187142 23:-0.99999 24:-1 25:-1 26:-1 27:-1 28:-1 29:-1 30:-0.594595 31:-0.827703 32:-1 33:-0.891541 34:-0.594595 35:-1 36:-1 37:-1 38:-0.864865 39:-0.526316 40:-1 41:-0.336235 42:-0.45933 43:-1 44:-0.513515 45:-0.52365 46:-1 47:-0.783784 48:-0.898251 49:-1 50:-1 51:-1 52:-0.765766 53:-0.72973 54:-1 55:-1 56:-0.758519 57:-1 58:-0.891892 59:-0.837838 60:-1 61:-0.891892 62:-0.810224 63:-1 64:-0.810811 65:-1 66:-1 67:-1 68:-1 69:-0.891892 70:-0.72973 71:-1 72:-0.837838 73:-1 74:-1 75:-0.878378 76:-0.594595 77:-1 78:-0.433831 79:-0.72973 80:-1 81:-1 82:-1 83:-1 84:-0.918919 85:-1 86:-1 87:-0.842752 88:-1 89:-0.783784 90:-0.797297 91:-1 92:-0.72973 93:-0.72973 94:-1 95:-1 96:-0.861004 97:-1 98:-1 99:-1 100:-0.788289 101:-0.864865 102:-1 103:-0.837838 104:-0.817568 105:-1 106:-1 107:-0.864865 108:-1 109:-1 110:-0.871622 111:-1 112:-0.900901 113:-1 114:-1 115:-0.72973 116:-1 117:-1 118:-0.864865 119:-1 120:-1 121:-1 122:-0.927928 123:-1 124:-1 125:-0.783784 126:-1 127:-1 128:-1 129:-1 130:-1 131:-0.756757 132:-0.486486 133:-0.925676 134:-0.675675 135:-0.760282 136:-0.54054 137:-0.720721 138:-1 139:-1 140:-0.876448 141:-0.670609 142:-0.556756 143:-0.690418 144:-0.702702 145:-0.536492 146:-0.478764 147:-0.212354 148:-1 149:-0.878378 150:-1 151:-0.837838 152:-0.772644 153:-0.882883 154:-1 155:-0.891892 156:-0.810811 157:-0.795796 158:-1 159:-1 160:-1 161:-1 162:-1 163:-1 164:-1 165:-1 166:-0.826255 167:-0.989591 168:-0.986382 169:-0.981095 170:-0.976502 171:-0.946261 172:-0.965028 173:-0.950908 174:-0.958972 175:-0.975337 176:-0.945439 177:-0.946897 178:-0.944531 179:-0.974299 180:-0.953669 181:-0.957955 182:-0.940559 183:-0.985251 184:-0.9753 185:-0.989497 186:-0.973181 187:-0.961828 188:-0.960382 189:-0.960338 190:-0.960288 191:-0.961476 192:-0.960746 193:-0.961572 194:-0.961325 195:-0.960807 196:-0.960909 197:-0.998976 198:-0.997856 199:-0.996956 200:-0.996409 201:-0.997067 202:-1 203:-0.99341 204:-0.996694 205:-0.997658 206:-0.992462 207:-0.990577 208:-0.99278 209:-0.993949 210:-1 211:-0.995585 212:-0.974194 213:-0.931624 214:-0.863636 215:-0.909091 216:-0.943396 217:-0.892308 218:-0.907692 219:-0.873874 220:-0.851852 221:-0.833333 222:-0.520929 223:-0.177224 
12.62232826493064 1:-0.920468 2:-0.998702 3:-0.998611 4:-0.0763499 5:-0.224714 6:-0.998943 7:-0.103847 8:-0.996136 9:-0.998842 10:0.211203 11:-0.0782026 12:-0.999797 13:0.0584059 14:-0.999717 15:-0.999785 16:0.173457 17:-0.999884 18:-0.999982 19:0.403466 20:-0.99998 21:-0.999626 22:0.187001 23:-0.99985 24:-1 25:-0.917012 26:-0.53527 27:-0.811895 28:-0.751037 29:-0.86722 30:-0.834025 31:-0.841287 32:-0.925751 33:-1 34:-1 35:-1 36:-1 37:-1 38:-0.792531 39:-0.757589 40:-0.751038 41:-0.877713 42:-0.778647 43:-0.862353 44:-0.751038 45:-0.853735 46:-0.66805 47:-0.93361 48:-0.906273 49:-1 50:-1 51:-1 52:-0.856155 53:-0.834025 54:-0.838175 55:-0.84751 56:-0.851705 57:-0.751037 58:-0.86722 59:-0.950207 60:-0.912863 61:-0.966805 62:-0.825186 63:-0.670123 64:-0.883817 65:-0.975104 66:-0.93361 67:-0.809129 68:-0.749851 69:-0.86722 70:-0.875519 71:-0.824066 72:-0.850623 73:-0.858921 74:-0.870499 75:-0.850622 76:-0.709544 77:-0.858921 78:-1 79:-1 80:-0.975104 81:-0.751037 82:-0.841048 83:-0.909502 84:-0.900415 85:-0.875519 86:-0.809415 87:-0.855149 88:-1 89:-0.900415 90:-0.875518 91:-0.66805 92:-1 93:-1 94:-1 95:-1 96:-0.957321 97:-0.884794 98:-0.900415 99:-0.918296 100:-0.80498 101:-0.917012 102:-0.952974 103:-0.80083 104:-0.83195 105:-0.814498 106:-0.721992 107:-0.875519 108:-1 109:-1 110:-1 111:-1 112:-1 113:-0.900415 114:-0.925311 115:-0.875519 116:-0.817427 117:-0.954357 118:-1 119:-1 120:-1 121:-1 122:-1 123:-0.903576 124:-0.654772 125:-0.93361 126:-1 127:-1 128:-1 129:-1 130:-1 131:-0.751037 132:-0.747718 133:-0.520747 134:-0.477178 135:-0.558361 136:-0.741355 137:-1 138:-1 139:-1 140:-0.962063 141:-0.865145 142:-0.761826 143:-0.714825 144:-0.680498 145:-0.487642 146:-0.423829 147:-0.475992 148:-0.961273 149:-1 150:-1 151:-1 152:-1 153:-0.892116 154:-0.86722 155:-0.568465 156:-0.738589 157:-0.843246 158:-1 159:-1 160:-1 161:-1 162:-1 163:-1 164:-0.963248 165:-0.88935 166:-0.911085 167:-0.942869 168:-0.929597 169:-0.950892 170:-0.941527 171:-0.940366 172:-0.935731 173:-0.942084 174:-0.930988 175:-0.938909 176:-0.923808 177:-0.933184 178:-0.922596 179:-0.933536 180:-0.932618 181:-0.943355 182:-0.934571 183:-0.961086 184:-0.93937 185:-0.937089 186:-0.951553 187:-0.999224 188:-0.998381 189:-0.998342 190:-0.998317 191:-0.998289 192:-0.998311 193:-0.998276 194:-0.998154 195:-0.99818 196:-0.999185 197:-0.990783 198:-0.991426 199:-0.972603 200:-0.992819 201:-0.991202 202:-0.979412 203:-0.947282 204:-0.920661 205:-0.95082 206:-0.917085 207:-0.91755 208:-0.918171 209:-0.95764 210:-0.985653 211:-0.977925 212:-0.948387 213:-0.91453 214:-0.984848 215:-0.939394 216:-0.962264 217:-0.984615 218:-0.984615 219:-1 220:-1 221:-1 222:-0.697891 223:-0.570609 
12.71823877916616 1:-0.919131 2:-0.997832 3:-0.998719 4:-0.0760122 5:-0.224774 6:-0.998097 7:-0.103886 8:-0.997528 9:-0.998885 10:0.211021 11:-0.0782324 12:-0.999757 13:0.0592299 14:-0.999657 15:-0.999783 16:0.173496 17:-0.999956 18:-0.999956 19:0.40346 20:-0.999989 21:-0.999544 22:0.187013 23:-0.999915 24:-0.938775 25:-0.795918 26:-0.885714 27:-0.861225 28:-0.918367 29:-0.967347 30:-0.918367 31:-1 32:-1 33:-1 34:-1 35:-1 36:-1 37:-1 38:-0.918367 39:-0.713856 40:-0.853061 41:-0.799516 42:-0.836695 43:-0.7969 44:-0.755102 45:-0.808164 46:-0.804082 47:-0.902041 48:-0.938535 49:-1 50:-1 51:-1 52:-0.893877 53:-0.877551 54:-0.787755 55:-0.95 56:-0.854126 57:-0.918367 58:-0.836734 59:-0.926531 60:-1 61:-0.934694 62:-0.770719 63:-1 64:-0.657142 65:-0.97551 66:-0.902041 67:-0.749661 68:-0.753936 69:-0.869388 70:-0.836735 71:-0.826938 72:-0.853061 73:-0.895918 74:-0.936307 75:-0.889796 76:-0.755102 77:-0.791837 78:-0.885996 79:-1 80:-0.95102 81:-0.877551 82:-0.895762 83:-0.91098 84:-0.926531 85:-0.877551 86:-0.859395 87:-0.810019 88:-0.944023 89:-0.934694 90:-0.755102 91:-0.673469 92:-0.877551 93:-1 94:-0.877551 95:-0.706123 96:-0.916035 97:-0.886675 98:-0.902041 99:-0.879445 100:-0.808164 101:-0.959184 102:-0.861225 103:-0.853061 104:-0.889796 105:-0.817527 106:-0.521429 107:-0.836735 108:-1 109:-1 110:-1 111:-0.926531 112:-0.910204 113:-0.853061 114:-0.902041 115:-0.836735 116:-0.910204 117:-0.955102 118:-0.959184 119:-1 120:-1 121:-1 122:-0.902041 123:-0.620602 124:-0.503674 125:-0.836734 126:-1 127:-1 128:-1 129:-1 130:-1 131:-0.926531 132:-0.844898 133:-0.663265 134:-0.436734 135:-0.348358 136:-0.791837 137:-1 138:-1 139:-1 140:-1 141:-1 142:-0.933061 143:-0.812987 144:-0.797959 145:-0.300008 146:-0.59067 147:-0.762099 148:-1 149:-1 150:-1 151:-1 152:-1 153:-1 154:-0.95102 155:-0.640816 156:-0.514285 157:-0.845805 158:-1 159:-1 160:-1 161:-1 162:-1 163:-1 164:-0.963848 165:-0.727891 166:-0.895044 167:-0.934977 168:-0.942291 169:-0.935081 170:-0.948857 171:-0.934993 172:-0.945952 173:-0.940158 174:-0.946153 175:-0.930691 176:-0.934563 177:-0.936092 178:-0.939131 179:-0.936994 180:-0.950266 181:-0.942589 182:-0.959285 183:-0.945625 184:-0.942665 185:-0.941141 186:-0.948034 187:-0.998416 188:-0.997587 189:-0.997592 190:-0.997575 191:-0.997612 192:-0.997628 193:-0.997586 194:-0.997387 195:-0.997294 196:-0.998454 197:-0.991807 198:-0.991426 199:-0.993912 200:-0.971275 201:-0.98827 202:-0.985294 203:-0.990115 204:-0.983471 205:-0.983607 206:-0.994975 207:-0.964664 208:-0.951865 209:-0.93646 210:-0.931133 211:-0.88521 212:-0.509677 213:-0.538462 214:-0.878788 215:-0.924242 216:-0.943396 217:-0.953846 218:-0.923077 219:-1 220:-1 221:-1 222:-0.623955 223:-0.409674 
24.703248304217 1:-0.930159 2:-0.998904 3:-0.998521 4:-0.0765891 5:-0.224695 6:-0.999367 7:-0.103868 8:-0.996493 9:-0.999126 10:0.211062 11:-0.0780035 12:-0.999819 13:0.0591078 14:-0.999765 15:-0.999847 16:0.173435 17:-0.999795 18:-0.999979 19:0.403443 20:-0.999956 21:-0.999858 22:0.187038 23:-0.999844 24:-0.971698 25:-0.95283 26:-1 27:-0.946541 28:-1 29:-0.924528 30:-0.90566 31:-0.939859 32:-0.957797 33:-0.924283 34:-1 35:-0.945037 36:-0.948193 37:-1 38:-0.858491 39:-0.779543 40:-0.943396 41:-0.860986 42:-0.874184 43:-0.765286 44:-0.773586 45:-0.889151 46:-0.773586 47:-0.849057 48:-0.964484 49:-0.84043 50:-1 51:-1 52:-0.836478 53:-0.764151 54:-1 55:-0.768868 56:-0.91571 57:-0.95283 58:-0.849057 59:-0.943396 60:-0.900944 61:-0.924528 62:-0.933757 63:-0.875 64:-0.867924 65:-0.943396 66:-0.849057 67:-0.855346 68:-0.715633 69:-0.886793 70:-0.858491 71:-0.8 72:-0.886793 73:-0.839623 74:-0.705569 75:-0.957547 76:-0.764151 77:-0.679246 78:-0.934125 79:-0.90566 80:-0.886792 81:-0.85849 82:-0.879536 83:-0.948561 84:-0.943396 85:-0.95283 86:-0.837508 87:-0.945112 88:-0.87062 89:-0.924528 90:-0.716981 91:-0.773586 92:-0.95283 93:-1 94:-0.971698 95:-0.773586 96:-0.80593 97:-0.869035 98:-0.83019 99:-0.90712 100:-0.926101 101:-0.95283 102:-0.893082 103:-0.886793 104:-0.936321 105:-0.841843 106:-0.841981 107:-0.95283 108:-1 109:-0.971698 110:-0.910377 111:-0.943396 112:-0.930818 113:-0.943396 114:-0.886792 115:-0.764151 116:-0.896226 117:-0.84434 118:-0.90566 119:-0.893082 120:-0.886792 121:-0.943396 122:-1 123:-1 124:-1 125:-1 126:-1 127:-1 128:-0.938679 129:-0.833664 130:-0.886793 131:-1 132:-1 133:-1 134:-1 135:-0.972108 136:-0.705975 137:0.494756 138:0.332882 139:-0.506918 140:-1 141:-1 142:-1 143:-1 144:-1 145:-0.611703 146:-0.490566 147:-0.954178 148:-1 149:-1 150:-1 151:-0.971698 152:-0.206397 153:-0.550314 154:-0.981132 155:-1 156:-1 157:-1 158:-0.91195 159:-0.839909 160:-0.575471 161:-1 162:-1 163:-1 164:-1 165:-1 166:-1 167:-0.950842 168:-0.926762 169:-0.952976 170:-0.929343 171:-0.95928 172:-0.932175 173:-0.94878 174:-0.931116 175:-0.942662 176:-0.92201 177:-0.944065 178:-0.922679 179:-0.941208 180:-0.915174 181:-0.942463 182:-0.916602 183:-0.946476 184:-0.919685 185:-0.93635 186:-0.928474 187:-0.999559 188:-0.998654 189:-0.998725 190:-0.99857 191:-0.998635 192:-0.998654 193:-0.998649 194:-0.998582 195:-0.998564 196:-0.999657 197:-0.996928 198:-0.993569 199:-0.981735 200:-0.967684 201:-0.985337 202:-0.976471 203:-0.963756 204:-0.930579 205:-0.929742 206:-0.944724 207:-0.948174 208:-0.947052 209:-0.939486 210:-0.965567 211:-0.969095 212:-0.96129 213:-0.965812 214:-0.969697 215:-0.969697 216:-1 217:-1 218:-1 219:-1 220:-1 221:-1 222:-0.784416 223:-0.670316 
32 1:-0.930159 2:-0.992397 3:-0.983693 4:-0.0775608 5:-0.224323 6:-0.999983 7:-0.104004 8:-0.991886 9:-0.998258 10:0.210893 11:-0.0778406 12:-0.999383 13:0.0589967 14:-0.999286 15:-0.999868 16:0.173541 17:-0.999991 18:-0.999987 19:0.403476 20:-0.999997 21:-0.997396 22:0.186511 23:-0.999677 24:-0.886793 25:-0.575472 26:-0.207546 27:-0.46541 28:-0.528302 29:-0.584906 30:-0.339623 31:-0.278303 32:-0.493567 33:-0.697134 34:-0.858491 35:-1 36:-1 37:-1 38:-0.811321 39:-0.724429 40:-0.886793 41:-0.768309 42:-0.685459 43:-0.687048 44:-0.490567 45:-0.722878 46:-0.773586 47:-0.886793 48:-0.680355 49:-0.414908 50:-0.481132 51:-0.80311 52:-0.918239 53:-0.90566 54:-0.938679 55:-0.942217 56:-1 57:-1 58:-0.962264 59:-1 60:-1 61:-1 62:-1 63:-0.875 64:-0.933962 65:-0.85849 66:-1 67:-1 68:-1 69:-1 70:-1 71:-1 72:-1 73:-1 74:-1 75:-1 76:-1 77:-1 78:-1 79:-1 80:-1 81:-1 82:-1 83:-1 84:-1 85:-1 86:-1 87:-1 88:-1 89:-1 90:-1 91:-1 92:-1 93:-1 94:-1 95:-1 96:-1 97:-1 98:-1 99:-1 100:-1 101:-1 102:-1 103:-1 104:-1 105:-1 106:-1 107:-1 108:-1 109:-0.915095 110:-1 111:-0.943396 112:-1 113:-1 114:-1 115:-1 116:-1 117:-1 118:-1 119:-1 120:-1 121:-1 122:-1 123:-0.91779 124:-0.818868 125:-0.924528 126:-0.943396 127:-0.851572 128:-1 129:-1 130:-1 131:-0.830188 132:-0.533962 133:-0.766509 134:-0.632075 135:-0.609516 136:-0.705975 137:-0.805032 138:-0.783019 139:-1 140:-0.827493 141:-0.808373 142:-0.767924 143:-0.711836 144:-0.818396 145:-0.805852 146:-0.890836 147:-0.633423 148:-0.779875 149:-0.70283 150:-0.924528 151:-0.915095 152:-0.801599 153:-0.795597 154:-0.886792 155:-0.924528 156:-0.768867 157:-0.643606 158:-0.977987 159:-0.967982 160:-1 161:-0.91195 162:-0.95283 163:-1 164:-1 165:-0.842767 166:-0.878706 167:-0.951998 168:-0.954016 169:-0.868128 170:-0.902791 171:-0.944845 172:-0.948202 173:-0.859297 174:-0.886355 175:-0.940049 176:-0.936861 177:-0.958479 178:-0.941868 179:-0.966209 180:-0.954591 181:-0.950158 182:-0.949195 183:-0.957908 184:-0.945346 185:-0.953151 186:-0.95483 187:-0.991986 188:-0.99112 189:-0.991732 190:-0.991248 191:-0.991856 192:-0.991987 193:-0.992062 194:-0.991801 195:-0.991169 196:-0.992127 197:-0.995904 198:-0.980707 199:-0.981735 200:-0.967684 201:-0.98827 202:-0.979412 203:-0.98682 204:-0.990083 205:-0.992974 206:-0.994975 207:-0.992933 208:-0.990373 209:-0.990923 210:-0.977044 211:-0.96468 212:-0.858065 213:-0.760684 214:-0.818182 215:-0.666667 216:-0.509434 217:-0.676923 218:-0.723077 219:-0.963964 220:-0.851852 221:-0.75 222:-0.384983 223:-0.186097 
3.310400351627354 1:-0.981621 2:-0.913813 3:-0.938969 4:-0.0180112 5:-0.192597 6:-0.939253 7:-0.059086 8:-0.950365 9:-0.999577 10:0.211001 11:-0.0779878 12:-0.999863 13:0.0587846 14:-0.99984 15:-0.999925 16:0.173526 17:-0.99997 18:-0.999988 19:0.403474 20:-0.999993 21:-0.999931 22:0.187108 23:-0.999976 24:-1 25:-1 26:-1 27:-1 28:-1 29:-1 30:-1 31:-0.340519 32:-1 33:-1 34:-0.482759 35:-1 36:-1 37:-1 38:-1 39:-1 40:-1 41:-0.830625 42:-1 43:-1 44:-0.586207 45:-1 46:-1 47:-1 48:-0.610548 49:-1 50:-1 51:-0.794381 52:-0.701149 53:-1 54:-1 55:-0.366379 56:-1 57:-1 58:-0.586207 59:-1 60:-1 61:-1 62:-0.273614 63:-1 64:-1 65:-0.793103 66:-0.586207 67:-1 68:-1 69:-0.862069 70:-1 71:-1 72:-0.379312 73:-1 74:-1 75:-1 76:-0.482759 77:-1 78:-1 79:-0.655172 80:-0.793103 81:-1 82:-1 83:-0.623965 84:-1 85:-1 86:-0.604042 87:-0.799373 88:-1 89:-1 90:-0.482757 91:-1 92:-1 93:-1 94:-1 95:-1 96:-1 97:-0.0425979 98:-1 99:-1 100:-1 101:-0.827586 102:-1 103:-1 104:-0.767241 105:-1 106:-1 107:-1 108:-1 109:-1 110:-1 111:-0.689655 112:-0.873563 113:-1 114:-1 115:-1 116:-1 117:-1 118:-1 119:-1 120:-1 121:-1 122:-0.908046 123:-0.899836 124:-1 125:-0.724138 126:-1 127:-1 128:-1 129:-1 130:-1 131:-0.793103 132:-0.868965 133:-1 134:-1 135:-1 136:-0.804597 137:-1 138:-0.886699 139:-1 140:-0.527094 141:-0.859914 142:-0.575862 143:-0.868339 144:-0.810344 145:-0.526903 146:-0.73399 147:-0.665024 148:-0.356323 149:-1 150:-0.724138 151:-0.896551 152:-1 153:0.045981 154:-1 155:-0.172416 156:-0.75862 157:-0.739463 158:-1 159:-0.882968 160:-0.37931 161:-1 162:-1 163:-1 164:-1 165:-1 166:-1 167:-0.981512 168:-0.952993 169:-1 170:-1 171:-0.93149 172:-0.916648 173:-1 174:-1 175:-0.948631 176:-0.93416 177:-0.929006 178:-0.971781 179:-1 180:-1 181:-0.92909 182:-0.935676 183:-1 184:-1 185:-0.967545 186:-0.967292 187:-0.909676 188:-1 189:-0.911221 190:-1 191:-0.907158 192:-0.910958 193:-1 194:-0.910782 195:-1 196:-0.911783 197:-0.996928 198:-0.995713 199:-0.987823 200:-0.989228 201:-0.985337 202:-0.997059 203:-0.99341 204:-0.990083 205:-0.995316 206:-0.997487 207:-0.992933 208:-1 209:-0.996974 210:-0.994261 211:-0.995585 212:-0.974194 213:-0.91453 214:-0.984848 215:-0.954545 216:-0.981132 217:-0.953846 218:-0.984615 219:-0.90991 220:-1 221:-0.833333 222:-0.455992 223:-0.459997 
4.864985499170054 1:-0.981621 2:-0.905523 3:-0.933651 4:-0.0126904 5:-0.194847 6:-0.933674 7:-0.0621262 8:-0.957523 9:-0.999563 10:0.211015 11:-0.0779982 12:-0.999836 13:0.0589867 14:-0.999818 15:-0.999945 16:0.173543 17:-0.999991 18:-0.999979 19:0.403472 20:-0.999994 21:-0.999938 22:0.187117 23:-0.999988 24:-1 25:-1 26:-1 27:-1 28:-1 29:-1 30:-0.827586 31:-1 32:-1 33:-1 34:-0.482759 35:-1 36:-1 37:-0.626775 38:-0.827586 39:-1 40:-1 41:-0.661251 42:-1 43:-1 44:-0.586207 45:-1 46:-1 47:-1 48:-0.740365 49:-1 50:-1 51:-0.794381 52:-0.701149 53:-1 54:-1 55:-0.577585 56:-1 57:-1 58:-0.862069 59:-1 60:-1 61:-1 62:-0.273614 63:-1 64:-1 65:-0.689655 66:-0.724138 67:-1 68:-1 69:-0.862069 70:-1 71:-1 72:-0.793104 73:-1 74:-1 75:-1 76:-0.655172 77:-1 78:-1 79:-0.827586 80:-0.896551 81:-1 82:-1 83:-0.623965 84:-1 85:-1 86:-0.406064 87:-1 88:-1 89:-1 90:-0.224137 91:-1 92:-1 93:-1 94:-1 95:-1 96:-1 97:-0.281949 98:-1 99:-1 100:-0.459771 101:-0.655172 102:-1 103:-1 104:-0.767241 105:-1 106:-1 107:-1 108:-1 109:-1 110:-1 111:-0.586207 112:-1 113:-1 114:-1 115:-0.655172 116:-1 117:-1 118:-1 119:-1 120:-1 121:-1 122:-0.816092 123:-0.899836 124:-1 125:-0.724138 126:-1 127:-0.864367 128:-1 129:-1 130:-1 131:-0.793103 132:-0.868965 133:-0.810344 134:-0.793103 135:-1 136:-0.902299 137:-0.762452 138:-1 139:-0.436781 140:-1 141:-0.859914 142:-0.85862 143:-0.868339 144:-0.620689 145:-0.881726 146:-0.600985 147:-1 148:-0.517242 149:-1 150:-0.724138 151:-0.896551 152:-0.854962 153:-0.850574 154:-1 155:-0.448276 156:-0.75862 157:-0.869732 158:-1 159:-0.765935 160:-0.534483 161:-0.83908 162:-0.655172 163:-1 164:-1 165:-1 166:-1 167:-0.970174 168:-0.974047 169:-1 170:-1 171:-0.924795 172:-0.914186 173:-1 174:-1 175:-1 176:-1 177:-0.934033 178:-0.92622 179:-1 180:-1 181:-0.948258 182:-0.923918 183:-1 184:-1 185:-0.952156 186:-0.941449 187:-0.90025 188:-1 189:-0.903415 190:-1 191:-1 192:-0.903358 193:-1 194:-0.902709 195:-1 196:-0.903066 197:-0.99488 198:-0.995713 199:-0.990868 200:-0.989228 201:-0.997067 202:-0.994118 203:-1 204:-0.983471 205:-0.997658 206:-0.994975 207:-0.992933 208:-0.995187 209:-0.993949 210:-0.997131 211:-0.99117 212:-0.935484 213:-0.965812 214:-0.924242 215:-0.969697 216:-0.962264 217:-0.969231 218:-0.984615 219:-1 220:-0.925926 221:-0.916667 222:-0.510197 223:-0.512864 
8.893681988950661 1:-0.97594 2:-0.927895 3:-0.949616 4:-0.0277321 5:-0.203574 6:-0.948466 7:-0.0739658 8:-0.969671 9:-0.999389 10:0.21108 11:-0.0778675 12:-0.999806 13:0.0587871 14:-0.999771 15:-0.999924 16:0.173534 17:-0.999984 18:-0.999953 19:0.403445 20:-0.999985 21:-0.999881 22:0.187096 23:-0.999973 24:-1 25:-1 26:-0.626666 27:-1 28:-1 29:-0.68 30:-1 31:-1 32:-0.642121 33:-1 34:-1 35:-0.844638 36:-1 37:-1 38:-1 39:-1 40:-0.840001 41:-1 42:-1 43:-0.557693 44:-1 45:-1 46:-0.573333 47:-1 48:-1 49:-0.548948 50:-1 51:-0.920494 52:-0.768888 53:-1 54:-0.479999 55:-1 56:-1 57:-0.733333 58:-1 59:-1 60:-0.813333 61:-1 62:-1 63:-0.469999 64:-1 65:-0.84 66:-0.466666 67:-1 68:-0.799047 69:-1 70:-1 71:-0.623109 72:-1 73:-1 74:-0.375805 75:-1 76:-1 77:-0.32 78:-1 79:-1 80:-0.92 81:-1 82:-0.489232 83:-1 84:-1 85:-0.333333 86:-1 87:-1 88:-0.26857 89:-1 90:-1 91:-0.786667 92:-1 93:-1 94:-1 95:-1 96:-0.58857 97:-1 98:-1 99:-0.474916 100:-1 101:-1 102:-0.697778 103:-1 104:-1 105:-1 106:-1 107:-1 108:-1 109:-1 110:-0.366665 111:-1 112:-1 113:-1 114:-1 115:-1 116:-1 117:-1 118:-1 119:-1 120:-1 121:-1 122:-1 123:-0.92254 124:-0.914667 125:-0.893334 126:-1 127:-1 128:-1 129:-1 130:-1 131:-0.68 132:-1 133:-0.78 134:-0.84 135:-0.92116 136:-1 137:-1 138:-1 139:-1 140:-0.878096 141:-0.783333 142:-0.781333 143:-0.898182 144:-0.486666 145:-0.725604 146:-0.485714 147:-0.481904 148:-1 149:-0.64 150:-0.786666 151:-0.84 152:-0.214862 153:-1 154:-0.733333 155:-0.786666 156:-0.72 157:-0.697778 158:-1 159:-0.45697 160:-0.88 161:-1 162:-1 163:-0.726666 164:-1 165:-1 166:-0.942857 167:-0.986192 168:-0.946295 169:-1 170:-1 171:-0.908666 172:-0.914815 173:-0.934743 174:-0.91986 175:-0.937926 176:-0.941771 177:-1 178:-1 179:-0.927196 180:-0.929262 181:-0.964615 182:-0.956917 183:-1 184:-1 185:-0.982363 186:-0.978366 187:-0.924101 188:-1 189:-0.925492 190:-0.922191 191:-0.924837 192:-1 193:-0.925126 194:-0.924833 195:-0.923126 196:-0.926972 197:-0.998976 198:-0.987138 199:-0.987823 200:-0.985637 201:-0.991202 202:-0.994118 203:-0.980231 204:-0.993388 205:-0.992974 206:-0.994975 207:-0.992933 208:-0.99278 209:-0.996974 210:-0.988522 211:-1 212:-0.974194 213:-0.897436 214:-0.969697 215:-0.954545 216:-0.886792 217:-0.923077 218:-0.984615 219:-0.945946 220:-1 221:-0.916667 222:-0.433664 223:-0.446452 
15.61461400881666 1:-0.979282 2:-0.921248 3:-0.94441 4:-0.0230154 5:-0.199316 6:-0.944027 7:-0.0682324 8:-0.960017 9:-0.999466 10:0.211064 11:-0.0779608 12:-0.99981 13:0.0588092 14:-0.999795 15:-0.999937 16:0.173548 17:-0.999997 18:-0.999987 19:0.403478 20:-0.999998 21:-0.999853 22:0.18711 23:-0.999991 24:-1 25:-1 26:-1 27:-1 28:-1 29:-0.876923 30:-1 31:-1 32:-0.587063 33:-1 34:-1 35:-0.641472 36:-1 37:-1 38:-0.538462 39:-1 40:-0.63077 41:-1 42:-1 43:-0.744823 44:-1 45:-1 46:-0.261539 47:-1 48:-1 49:-0.479555 50:-1 51:-1 52:-0.866667 53:-1 54:-0.6 55:-1 56:-1 57:-0.538462 58:-1 59:-1 60:-0.784615 61:-1 62:-1 63:-0.388461 64:-1 65:-0.907692 66:-0.876923 67:-1 68:-0.768131 69:-1 70:-1 71:-0.565127 72:-1 73:-1 74:-0.0396988 75:-1 76:-1 77:-0.738462 78:-1 79:-1 80:-0.723077 81:-1 82:-0.803551 83:-1 84:-1 85:-0.538462 86:-1 87:-1 88:-0.156041 89:-1 90:-1 91:-1 92:-1 93:-1 94:-1 95:-1 96:-0.525274 97:-1 98:-1 99:-0.394133 100:-1 101:-1 102:-1 103:-1 104:-1 105:-1 106:-1 107:-1 108:-1 109:-1 110:-0.561538 111:-0.630769 112:-1 113:-1 114:-1 115:-1 116:-1 117:-1 118:-1 119:-1 120:-1 121:-1 122:-0.917949 123:-1 124:-1 125:-1 126:-1 127:-0.878974 128:-1 129:-1 130:-1 131:-0.538461 132:-1 133:-0.830769 134:-0.815385 135:-0.81806 136:-0.912821 137:-0.894017 138:-1 139:-1 140:-0.578022 141:-0.875 142:-0.621538 143:-0.882518 144:-1 145:-0.683389 146:-1 147:-0.252746 148:-1 149:-0.861538 150:-0.876923 151:-1 152:-0.482326 153:-0.733333 154:-0.753846 155:-0.507692 156:-0.676923 157:-0.883761 158:-1 159:-0.269 160:-1 161:-0.712821 162:-0.692308 163:-1 164:-0.863736 165:-1 166:-1 167:-0.957688 168:-0.958955 169:-1 170:-1 171:-0.918424 172:-0.910156 173:-1 174:-1 175:-0.931654 176:-0.917719 177:-1 178:-1 179:-0.940305 180:-0.910423 181:-0.978447 182:-0.983124 183:-0.960243 184:-0.950973 185:-0.99507 186:-0.99619 187:-0.916165 188:-1 189:-0.918798 190:-1 191:-0.918692 192:-1 193:-0.917652 194:-0.917542 195:-0.916589 196:-0.919181 197:-0.996928 198:-0.997856 199:-0.975647 200:-0.985637 201:-0.98827 202:-0.988235 203:-0.990115 204:-0.996694 205:-0.995316 206:-0.98995 207:-1 208:-0.995187 209:-0.996974 210:-0.997131 211:-0.995585 212:-0.96129 213:-0.948718 214:-0.954545 215:-0.984848 216:-0.943396 217:-0.984615 218:-0.938462 219:-0.963964 220:-0.888889 221:-0.916667 222:-0.427035 223:-0.505396 
4.888214953435954 1:-0.965915 2:-0.966099 3:-0.95731 4:-0.0536645 5:-0.214228 6:-0.986022 7:-0.0955208 8:-0.986592 9:-0.999394 10:0.211046 11:-0.0781106 12:-0.999725 13:0.0587811 14:-0.999705 15:-0.999893 16:0.173498 17:-0.999931 18:-0.999974 19:0.40345 20:-0.999978 21:-0.999981 22:0.187125 23:-0.999983 24:-1 25:-1 26:-1 27:-1 28:-1 29:-1 30:-0.809524 31:-1 32:-0.744372 33:-1 34:-0.809524 35:-1 36:-0.7908 37:-1 38:-1 39:-1 40:-1 41:-0.906441 42:-1 43:-0.684067 44:-0.771429 45:-1 46:-0.695238 47:-1 48:-0.856583 49:-1 50:-0.714286 51:-0.94321 52:-1 53:-0.904762 54:-1 55:-0.766666 56:-1 57:-0.809524 58:-0.771429 59:-1 60:-0.866667 61:-1 62:-0.598759 63:-1 64:-0.733333 65:-0.771429 66:-0.92381 67:-0.707937 68:-1 69:-0.771429 70:-1 71:-0.59619 72:-0.657144 73:-1 74:-0.851382 75:-1 76:-0.619048 77:-1 78:-0.467981 79:-0.904762 80:-0.828571 81:-0.571428 82:-1 83:-0.688429 84:-1 85:-0.714286 86:-0.453202 87:-1 88:-0.346938 89:-1 90:-0.571428 91:-1 92:-0.904762 93:-1 94:-1 95:-1 96:-1 97:-0.603362 98:-1 99:-0.81247 100:-0.850794 101:-0.904762 102:-0.784128 103:-1 104:-0.614286 105:-1 106:-1 107:-1 108:-1 109:-1 110:-1 111:-1 112:-1 113:-1 114:-1 115:-1 116:-0.580952 117:-1 118:-1 119:-1 120:-1 121:-1 122:-1 123:-0.944671 124:-0.817143 125:-1 126:-0.92381 127:-1 128:-1 129:-0.932832 130:-1 131:-1 132:-0.855238 133:-0.895238 134:-0.885714 135:-0.887371 136:-0.892064 137:-0.868783 138:-0.687075 139:-0.875555 140:-0.738776 141:-0.922619 142:-0.531427 143:-0.854546 144:-0.895238 145:-0.412008 146:-0.706122 147:-0.444897 148:-0.733334 149:-0.914286 150:-0.847619 151:-0.942857 152:-0.35907 153:-0.752381 154:-0.92381 155:-0.390476 156:-1 157:-1 158:-1 159:-1 160:-1 161:-1 162:-0.238095 163:-0.414285 164:-0.746939 165:-1 166:-1 167:-0.9902 168:-0.981954 169:-0.963837 170:-0.969127 171:-0.957222 172:-0.950922 173:-0.948413 174:-0.947443 175:-0.923256 176:-0.922061 177:-1 178:-1 179:-0.918116 180:-0.917913 181:-0.945054 182:-0.934176 183:-0.96226 184:-0.941333 185:-0.973314 186:-0.979594 187:-0.965449 188:-0.963904 189:-0.963721 190:-0.964823 191:-0.965108 192:-1 193:-0.965216 194:-0.965164 195:-0.963792 196:-0.964808 197:-0.99488 198:-0.997856 199:-0.996956 200:-0.992819 201:-0.98827 202:-0.988235 203:-0.98682 204:-0.986777 205:-0.995316 206:-0.997487 207:-0.995289 208:-0.98556 209:-1 210:-0.991392 211:-0.977925 212:-0.935484 213:-0.897436 214:-0.909091 215:-0.924242 216:-0.90566 217:-0.861538 218:-0.969231 219:-0.837838 220:-0.703704 221:-0.666667 222:-0.42671 223:-0.268281 
4.555488486341652 1:-0.972598 2:-0.93597 3:-0.954746 4:-0.0327715 5:-0.205745 6:-0.953636 7:-0.0770091 8:-0.971426 9:-0.999239 10:0.211204 11:-0.077994 12:-0.999776 13:0.0590554 14:-0.99973 15:-0.999903 16:0.173538 17:-0.999991 18:-0.999949 19:0.403458 20:-0.999993 21:-0.99985 22:0.187102 23:-0.999984 24:-1 25:-1 26:-0.835294 27:-1 28:-1 29:-0.905882 30:-1 31:-1 32:-0.789483 33:-1 34:-1 35:-1 36:-1 37:-1 38:-1 39:-1 40:-0.717648 41:-1 42:-1 43:-0.219459 44:-1 45:-1 46:-0.058824 47:-1 48:-0.911419 49:-0.734675 50:-1 51:-0.929848 52:-0.796078 53:-1 54:-0.541176 55:-1 56:-1 57:-0.764706 58:-1 59:-1 60:-0.917647 61:-1 62:-1 63:-0.532352 64:-1 65:-0.788235 66:-0.62353 67:-1 68:-0.468066 69:-1 70:-1 71:-0.501175 72:-1 73:-1 74:-0.0820661 75:-1 76:-1 77:-0.4 78:-1 79:-0.882353 80:-0.788235 81:-1 82:-0.849774 83:-1 84:-1 85:-0.764706 86:-1 87:-1 88:-0.354621 89:-1 90:-1 91:-0.62353 92:-1 93:-1 94:-0.929412 95:-1 96:-0.636974 97:-1 98:-1 99:-0.305036 100:-1 101:-1 102:-0.866667 103:-1 104:-1 105:-1 106:-1 107:-1 108:-1 109:-1 110:-0.329411 111:-0.929412 112:-1 113:-0.717648 114:-1 115:-1 116:-1 117:-1 118:-1 119:-1 120:-1 121:-1 122:-0.968627 123:-1 124:-0.849412 125:-1 126:-0.952941 127:-1 128:-1 129:-1 130:-1 131:-0.364707 132:-0.910588 133:-0.805882 134:-1 135:-0.930435 136:-1 137:-0.837909 138:-1 139:-1 140:-0.784874 141:-1 142:-0.421176 143:-0.730482 144:-0.547059 145:-0.677181 146:-0.546218 147:-0.542857 148:-0.780393 149:-0.788235 150:-1 151:-1 152:-0.604132 153:-0.694117 154:-0.764706 155:-0.811765 156:-0.835294 157:-0.644445 158:-1 159:-0.520856 160:-0.682353 161:-0.890196 162:-1 163:-1 164:-1 165:-1 166:-1 167:-0.957674 168:-0.98355 169:-1 170:-1 171:-0.908697 172:-0.903705 173:-0.937397 174:-0.929892 175:-0.907435 176:-0.946528 177:-1 178:-1 179:-0.915326 180:-0.923888 181:-0.947834 182:-0.944526 183:-1 184:-1 185:-0.974132 186:-0.963523 187:-0.931378 188:-1 189:-0.933234 190:-0.930514 191:-0.933413 192:-1 193:-0.932185 194:-0.931813 195:-1 196:-0.93369 197:-0.995904 198:-0.991426 199:-0.990868 200:-0.978456 201:-0.98827 202:-0.973529 203:-0.996705 204:-0.993388 205:-0.995316 206:-0.997487 207:-0.992933 208:-0.997593 209:-0.990923 210:-0.991392 211:-0.977925 212:-0.922581 213:-0.965812 214:-0.969697 215:-0.878788 216:-0.90566 217:-0.984615 218:-1 219:-0.90991 220:-0.888889 221:-1 222:-0.430511 223:-0.433391 
